{"learner":{"attributes":{"scikit_learn":"{\"_estimator_type\": \"classifier\"}"},"feature_names":["home_elo","away_elo","elo_diff","home_form_5","away_form_5","home_goals_for_avg","away_goals_for_avg","home_goals_against_avg","away_goals_against_avg","home_rest_days","away_rest_days","home_h2h_win_rate","away_h2h_win_rate","home_gd_form","away_gd_form","home_played_europe","away_played_europe","home_shots_on_goal_avg5","away_shots_on_goal_avg5","home_total_shots_avg5","away_total_shots_avg5","home_shots_insidebox_avg5","away_shots_insidebox_avg5","home_ball_possession_avg5","away_ball_possession_avg5","home_total_passes_avg5","away_total_passes_avg5","home_passes_pct_avg5","away_passes_pct_avg5","home_corner_kicks_avg5","away_corner_kicks_avg5","home_fouls_avg5","away_fouls_avg5","home_expected_goals_avg5","away_expected_goals_avg5"],"feature_types":["float","float","float","float","float","float","float","float","float","int","int","float","float","float","float","int","int","float","float","float","float","float","float","float","float","float","float","float","float","float","float","float","float","float","float"],"gradient_booster":{"model":{"cats":{"enc":[],"feature_segments":[],"sorted_idx":[]},"gbtree_model_param":{"num_parallel_tree":"1","num_trees":"600"},"iteration_indptr":[0,3,6,9,12,15,18,21,24,27,30,33,36,39,42,45,48,51,54,57,60,63,66,69,72,75,78,81,84,87,90,93,96,99,102,105,108,111,114,117,120,123,126,129,132,135,138,141,144,147,150,153,156,159,162,165,168,171,174,177,180,183,186,189,192,195,198,201,204,207,210,213,216,219,222,225,228,231,234,237,240,243,246,249,252,255,258,261,264,267,270,273,276,279,282,285,288,291,294,297,300,303,306,309,312,315,318,321,324,327,330,333,336,339,342,345,348,351,354,357,360,363,366,369,372,375,378,381,384,387,390,393,396,399,402,405,408,411,414,417,420,423,426,429,432,435,438,441,444,447,450,453,456,459,462,465,468,471,474,477,480,483,486,489,492,495,498,501,504,507,510,513,516,519,522,525,528,531,534,537,540,543,546,549,552,555,558,561,564,567,570,573,576,579,582,585,588,591,594,597,600],"tree_info":[0,1,2,0,1,2,0,1,2,0,1,2,0,1,2,0,1,2,0,1,2,0,1,2,0,1,2,0,1,2,0,1,2,0,1,2,0,1,2,0,1,2,0,1,2,0,1,2,0,1,2,0,1,2,0,1,2,0,1,2,0,1,2,0,1,2,0,1,2,0,1,2,0,1,2,0,1,2,0,1,2,0,1,2,0,1,2,0,1,2,0,1,2,0,1,2,0,1,2,0,1,2,0,1,2,0,1,2,0,1,2,0,1,2,0,1,2,0,1,2,0,1,2,0,1,2,0,1,2,0,1,2,0,1,2,0,1,2,0,1,2,0,1,2,0,1,2,0,1,2,0,1,2,0,1,2,0,1,2,0,1,2,0,1,2,0,1,2,0,1,2,0,1,2,0,1,2,0,1,2,0,1,2,0,1,2,0,1,2,0,1,2,0,1,2,0,1,2,0,1,2,0,1,2,0,1,2,0,1,2,0,1,2,0,1,2,0,1,2,0,1,2,0,1,2,0,1,2,0,1,2,0,1,2,0,1,2,0,1,2,0,1,2,0,1,2,0,1,2,0,1,2,0,1,2,0,1,2,0,1,2,0,1,2,0,1,2,0,1,2,0,1,2,0,1,2,0,1,2,0,1,2,0,1,2,0,1,2,0,1,2,0,1,2,0,1,2,0,1,2,0,1,2,0,1,2,0,1,2,0,1,2,0,1,2,0,1,2,0,1,2,0,1,2,0,1,2,0,1,2,0,1,2,0,1,2,0,1,2,0,1,2,0,1,2,0,1,2,0,1,2,0,1,2,0,1,2,0,1,2,0,1,2,0,1,2,0,1,2,0,1,2,0,1,2,0,1,2,0,1,2,0,1,2,0,1,2,0,1,2,0,1,2,0,1,2,0,1,2,0,1,2,0,1,2,0,1,2,0,1,2,0,1,2,0,1,2,0,1,2,0,1,2,0,1,2,0,1,2,0,1,2,0,1,2,0,1,2,0,1,2,0,1,2,0,1,2,0,1,2,0,1,2,0,1,2,0,1,2,0,1,2,0,1,2,0,1,2,0,1,2,0,1,2,0,1,2,0,1,2,0,1,2,0,1,2,0,1,2,0,1,2,0,1,2,0,1,2,0,1,2,0,1,2,0,1,2,0,1,2,0,1,2,0,1,2,0,1,2,0,1,2,0,1,2,0,1,2,0,1,2,0,1,2,0,1,2,0,1,2,0,1,2,0,1,2,0,1,2,0,1,2,0,1,2,0,1,2,0,1,2,0,1,2,0,1,2,0,1,2,0,1,2,0,1,2,0,1,2,0,1,2,0,1,2,0,1,2,0,1,2,0,1,2,0,1,2,0,1,2],"trees":[{"base_weights":[-4.3506053E-4,1.4275557E-1,-2.7085945E-1,1.4010809E-2,3.8280487E-1,-3.8780168E-1,-8.153692E-3,-1.3662848E-1,7.339609E-2,2.6623344E-1,5.206166E-1,-3.059543E-1,-5.079429E-1,-2.7777424E-1,1.6478413E-1,5.502302E-3,-5.5812662E-3,4.5789024E-4,7.0242696E-3,9.989737E-3,9.563516E-4,1.4681521E-2,2.5079165E-2,-1.193803E-2,-5.3924327E-3,-1.7108688E-2,-9.534799E-3,-7.240009E-3,-2.1779746E-2,8.069676E-3,-4.6617067E-3],"categories":[],"categories_nodes":[],"categories_segments":[],"categories_sizes":[],"default_left":[0,0,0,0,0,0,0,0,0,0,1,0,0,0,0,0,0,0,0,0,0,0,0,0,0,0,0,0,0,0,0],"id":0,"left_children":[1,3,5,7,9,11,13,15,17,19,21,23,25,27,29,-1,-1,-1,-1,-1,-1,-1,-1,-1,-1,-1,-1,-1,-1,-1,-1],"loss_changes":[2.3038766E2,1.2021514E2,6.3275604E1,2.2670038E1,2.1676651E1,1.3859665E1,2.967695E1,1.1366303E1,1.6980068E1,1.1530895E1,5.709656E0,9.798676E0,6.6463776E0,3.8868904E0,1.29798E1,0E0,0E0,0E0,0E0,0E0,0E0,0E0,0E0,0E0,0E0,0E0,0E0,0E0,0E0,0E0,0E0],"parents":[2147483647,0,0,1,1,2,2,3,3,4,4,5,5,6,6,7,7,8,8,9,9,10,10,11,11,12,12,13,13,14,14],"right_children":[2,4,6,8,10,12,14,16,18,20,22,24,26,28,30,-1,-1,-1,-1,-1,-1,-1,-1,-1,-1,-1,-1,-1,-1,-1,-1],"split_conditions":[1.5537124E3,3.33E-1,4E-1,-8E-1,6E-1,1.65647E3,2E-1,1.4341322E3,6E-1,1.5183774E3,6.12E1,1.3E0,6E-1,2.8E0,1.6481447E3,5.502302E-3,-5.5812662E-3,4.5789024E-4,7.0242696E-3,9.989737E-3,9.563516E-4,1.4681521E-2,2.5079165E-2,-1.193803E-2,-5.3924327E-3,-1.7108688E-2,-9.534799E-3,-7.240009E-3,-2.1779746E-2,8.069676E-3,-4.6617067E-3],"split_indices":[1,13,11,13,11,1,13,1,11,1,23,5,13,6,1,0,0,0,0,0,0,0,0,0,0,0,0,0,0,0,0],"split_type":[0,0,0,0,0,0,0,0,0,0,0,0,0,0,0,0,0,0,0,0,0,0,0,0,0,0,0,0,0,0,0],"sum_hessian":[5.9477524E3,3.8889907E3,2.0587617E3,2.532046E3,1.3569447E3,1.4242759E3,6.344859E2,7.155782E2,1.8164678E3,7.3671136E2,6.2023334E2,8.492576E2,5.750182E2,2.4770015E2,3.8678574E2,9.53449E1,6.2023334E2,1.3348286E3,4.816392E2,5.730523E2,1.6365903E2,5.666632E2,5.3570072E1,4.8999414E2,3.5926352E2,4.315094E2,1.4350882E2,2.3049875E2,1.7201399E1,2.919323E2,9.485343E1],"tree_param":{"num_deleted":"0","num_feature":"35","num_nodes":"31","size_leaf_vector":"1"}},{"base_weights":[2.3957212E-3,4.6752583E-2,-2.1316041E-1,9.3986295E-2,-3.796087E-2,-3.7301588E-1,-1.8292001E-1,1.2732999E-1,2.2570025E-2,1.0246084E-1,-6.834184E-2,-1.9386135E-1,-4.71406E-1,2.1272551E-2,-1.9119154E-1,1.2670407E-2,3.481346E-3,2.5337365E-2,3.664474E-4,-1.033281E-3,6.492057E-3,6.7433636E-3,-2.6035546E-3,-1.4542815E-2,9.054716E-4,-5.0955904E-3,-1.6066393E-2,-4.5206714E-3,-9.186982E-3],"categories":[],"categories_nodes":[],"categories_segments":[],"categories_sizes":[],"default_left":[0,0,0,0,0,0,0,0,0,0,0,0,0,0,0,0,0,0,0,0,0,0,0,0,0,0,0,0,0],"id":1,"left_children":[1,3,5,7,9,11,13,15,17,19,21,23,25,-1,27,-1,-1,-1,-1,-1,-1,-1,-1,-1,-1,-1,-1,-1,-1],"loss_changes":[4.393902E1,1.5253256E1,3.7229805E0,5.8244686E0,5.830326E0,2.0908146E0,5.0160427E0,5.504387E0,6.629967E0,3.8010585E0,6.0895576E0,2.9856138E0,1.4411583E0,0E0,3.0112858E0,0E0,0E0,0E0,0E0,0E0,0E0,0E0,0E0,0E0,0E0,0E0,0E0,0E0,0E0],"parents":[2147483647,0,0,1,1,2,2,3,3,4,4,5,5,6,6,7,7,8,8,9,9,10,10,11,11,12,12,14,14],"right_children":[2,4,6,8,10,12,14,16,18,20,22,24,26,-1,28,-1,-1,-1,-1,-1,-1,-1,-1,-1,-1,-1,-1,-1,-1],"split_conditions":[1.2246284E2,1.5698855E3,4E0,4.2892685E1,3.3E-1,5.52E1,3.8E1,7.08E1,8.4E0,1.667E0,4.61E2,3.6666667E0,1.325E1,2.1272551E-2,2.352321E2,1.2670407E-2,3.481346E-3,2.5337365E-2,3.664474E-4,-1.033281E-3,6.492057E-3,6.7433636E-3,-2.6035546E-3,-1.4542815E-2,9.054716E-4,-5.0955904E-3,-1.6066393E-2,-4.5206714E-3,-9.186982E-3],"split_indices":[2,1,18,2,12,23,24,28,19,6,26,30,19,0,2,0,0,0,0,0,0,0,0,0,0,0,0,0,0],"split_type":[0,0,0,0,0,0,0,0,0,0,0,0,0,0,0,0,0,0,0,0,0,0,0,0,0,0,0,0,0],"sum_hessian":[4.5934194E3,3.810154E3,7.832655E2,2.446146E3,1.3640079E3,1.227985E2,6.60467E2,1.6670369E3,7.7910925E2,2.4219643E2,1.1218115E3,4.45853E1,7.8213196E1,5.2897816E0,6.5517725E2,6.0076805E1,1.6069601E3,8.690355E0,7.704189E2,1.1032973E2,1.318667E2,6.574442E1,1.0560671E3,1.8892076E1,2.5693224E1,1.4357978E1,6.385522E1,4.8628204E2,1.6889517E2],"tree_param":{"num_deleted":"0","num_feature":"35","num_nodes":"29","size_leaf_vector":"1"}},{"base_weights":[5.057658E-3,4.547222E-1,-2.1956238E-1,6.3333803E-1,2.5692263E-1,-5.673008E-2,-3.9526504E-1,7.719999E-1,5.185181E-1,1.4643967E-1,3.6462307E-1,1.848723E-2,-1.3715327E-1,-3.185343E-1,-5.0136054E-1,2.4294881E-2,1.0107972E-2,1.3412721E-2,2.2401506E-2,1.0047776E-2,1.5259697E-3,2.2002066E-2,9.549854E-3,8.092037E-4,-1.0652416E-2,-8.9685805E-3,-3.1096546E-3,-8.315994E-3,-1.3612291E-2,-5.0070696E-3,-1.5437962E-2],"categories":[],"categories_nodes":[],"categories_segments":[],"categories_sizes":[],"default_left":[0,0,0,0,0,0,0,0,0,0,0,1,0,1,0,0,0,0,0,0,0,0,0,0,0,0,0,0,0,0,0],"id":2,"left_children":[1,3,5,7,9,11,13,15,17,19,21,23,25,27,29,-1,-1,-1,-1,-1,-1,-1,-1,-1,-1,-1,-1,-1,-1,-1,-1],"loss_changes":[5.2529944E2,6.1046844E1,9.920598E1,1.4083466E1,9.748894E0,1.0898675E1,1.3419586E1,6.475586E0,7.8271637E0,7.3384438E0,6.8767967E0,2.9630115E0,4.687744E0,5.2994156E0,3.0060425E0,0E0,0E0,0E0,0E0,0E0,0E0,0E0,0E0,0E0,0E0,0E0,0E0,0E0,0E0,0E0,0E0],"parents":[2147483647,0,0,1,1,2,2,3,3,4,4,5,5,6,6,7,7,8,8,9,9,10,10,11,11,12,12,13,13,14,14],"right_children":[2,4,6,8,10,12,14,16,18,20,22,24,26,28,30,-1,-1,-1,-1,-1,-1,-1,-1,-1,-1,-1,-1,-1,-1,-1,-1],"split_conditions":[-5.0572403E1,-1.2180171E2,5.5971443E1,-1.9160513E2,1.4714966E3,2.620095E0,1.4807257E2,5E-1,1.4E0,-1E0,6.67E-1,5.38E2,1.22E1,4.37E2,1.568374E3,2.4294881E-2,1.0107972E-2,1.3412721E-2,2.2401506E-2,1.0047776E-2,1.5259697E-3,2.2002066E-2,9.549854E-3,8.092037E-4,-1.0652416E-2,-8.9685805E-3,-3.1096546E-3,-8.315994E-3,-1.3612291E-2,-5.0070696E-3,-1.5437962E-2],"split_indices":[2,2,2,2,0,2,2,13,14,13,5,25,31,25,0,0,0,0,0,0,0,0,0,0,0,0,0,0,0,0,0],"split_type":[0,0,0,0,0,0,0,0,0,0,0,0,0,0,0,0,0,0,0,0,0,0,0,0,0,0,0,0,0,0,0],"sum_hessian":[5.198807E3,1.7315034E3,3.4673035E3,9.087171E2,8.227864E2,1.800248E3,1.6670554E3,4.090301E2,4.9968698E2,4.073115E2,4.154749E2,9.306294E2,8.696186E2,9.6972784E2,6.973276E2,3.7551712E2,3.351297E1,3.8282123E2,1.16865746E2,1.3620015E2,2.7111133E2,4.468396E1,3.7079095E2,9.1086536E2,1.976406E1,1.478008E2,7.218178E2,7.450191E2,2.2470876E2,2.7068169E1,6.702594E2],"tree_param":{"num_deleted":"0","num_feature":"35","num_nodes":"31","size_leaf_vector":"1"}},{"base_weights":[-2.5713348E-3,-1.626217E-1,3.5413495E-1,-5.659933E-2,-3.4474683E-1,4.6105456E-1,1.19568296E-1,3.2842133E-2,-1.5539505E-1,-1.308084E-1,-4.0284693E-1,3.9423475E-1,6.713406E-1,-1.4228953E-1,2.751379E-1,-6.2691426E-4,6.5923203E-3,-6.5507484E-3,1.2176957E-3,-2.5330135E-3,-1.3420055E-2,-8.56174E-3,-1.510454E-2,1.0300114E-2,1.6096761E-2,2.1931687E-2,1.37748355E-2,-5.2115493E-3,2.5129762E-2,1.0326137E-2,-7.949713E-3],"categories":[],"categories_nodes":[],"categories_segments":[],"categories_sizes":[],"default_left":[0,0,0,0,0,0,0,0,0,0,0,0,0,1,0,0,0,0,0,0,0,0,0,0,0,0,0,0,0,0,0],"id":3,"left_children":[1,3,5,7,9,11,13,15,17,19,21,23,25,27,29,-1,-1,-1,-1,-1,-1,-1,-1,-1,-1,-1,-1,-1,-1,-1,-1],"loss_changes":[3.4012497E2,7.9388084E1,4.622191E1,2.298386E1,1.8752884E1,1.7539917E1,2.3629286E1,1.3721312E1,1.5258305E1,4.727021E0,1.391478E1,6.798874E0,3.517685E0,6.8126473E0,1.3655514E1,0E0,0E0,0E0,0E0,0E0,0E0,0E0,0E0,0E0,0E0,0E0,0E0,0E0,0E0,0E0,0E0],"parents":[2147483647,0,0,1,1,2,2,3,3,4,4,5,5,6,6,7,7,8,8,9,9,10,10,11,11,12,12,13,13,14,14],"right_children":[2,4,6,8,10,12,14,16,18,20,22,24,26,28,30,-1,-1,-1,-1,-1,-1,-1,-1,-1,-1,-1,-1,-1,-1,-1,-1],"split_conditions":[1.5667357E3,4E-1,5E-1,4E-1,8.4E1,1.6973217E3,4E-1,1.523842E3,1.5E0,1.6E1,1E0,2E0,2E-1,7E0,1.8E0,-6.2691426E-4,6.5923203E-3,-6.5507484E-3,1.2176957E-3,-2.5330135E-3,-1.3420055E-2,-8.56174E-3,-1.510454E-2,1.0300114E-2,1.6096761E-2,2.1931687E-2,1.37748355E-2,-5.2115493E-3,2.5129762E-2,1.0326137E-2,-7.949713E-3],"split_indices":[0,14,14,12,28,0,11,0,5,20,14,8,14,17,14,0,0,0,0,0,0,0,0,0,0,0,0,0,0,0,0],"split_type":[0,0,0,0,0,0,0,0,0,0,0,0,0,0,0,0,0,0,0,0,0,0,0,0,0,0,0,0,0,0,0],"sum_hessian":[5.955588E3,4.111393E3,1.8441948E3,2.5994558E3,1.5119371E3,1.2661128E3,5.780821E2,1.3646669E3,1.2347888E3,3.2360355E2,1.1883336E3,9.629907E2,3.0312204E2,2.1547525E2,3.6260684E2,1.0606033E3,3.0406357E2,9.3446356E2,3.003253E2,2.8335562E2,4.024793E1,5.5011865E2,6.3821497E2,7.118373E2,2.5115344E2,2.3463966E2,6.848236E1,2.0957646E2,5.898784E0,3.218184E2,4.078846E1],"tree_param":{"num_deleted":"0","num_feature":"35","num_nodes":"31","size_leaf_vector":"1"}},{"base_weights":[-2.2004757E-3,4.78274E-2,-1.4669774E-1,6.193626E-2,-1.9251357E-1,-2.1238491E-1,-1.7627822E-2,3.181204E-1,5.4625735E-2,-2.1877274E-1,1.3306283E-2,-1.0555158E-1,-2.8810993E-1,3.5843535E-3,-4.2890087E-1,2.0847782E-2,1.1084261E-3,1.999082E-3,-2.3989675E-3,-7.5653903E-3,1.0567712E-2,-9.761066E-3,-1.6560934E-3,-6.4149518E-3,-1.1903626E-2,1.8660536E-3,-3.6249438E-3,-1.6521206E-2,-2.5799999E-3],"categories":[],"categories_nodes":[],"categories_segments":[],"categories_sizes":[],"default_left":[0,0,0,0,0,0,0,0,1,1,0,0,0,0,0,0,0,0,0,0,0,0,0,0,0,0,0,0,0],"id":4,"left_children":[1,3,5,7,9,11,13,15,17,19,-1,21,23,25,27,-1,-1,-1,-1,-1,-1,-1,-1,-1,-1,-1,-1,-1,-1],"loss_changes":[3.299291E1,1.1508186E1,9.947773E0,5.981447E0,3.2409096E0,6.261921E0,3.4647665E0,9.367632E0,5.041334E0,3.5499868E0,0E0,3.5701845E0,3.584755E0,2.7678812E0,7.662225E-1,0E0,0E0,0E0,0E0,0E0,0E0,0E0,0E0,0E0,0E0,0E0,0E0,0E0,0E0],"parents":[2147483647,0,0,1,1,2,2,3,3,4,4,5,5,6,6,7,7,8,8,9,9,11,11,12,12,13,13,14,14],"right_children":[2,4,6,8,10,12,14,16,18,20,-1,22,24,26,28,-1,-1,-1,-1,-1,-1,-1,-1,-1,-1,-1,-1,-1,-1],"split_conditions":[1.5886218E3,1.8E0,1.667E0,7.08E1,1.5769707E3,6E-1,3.2E0,3.95E2,4.93E2,5.008E2,1.3306283E-2,8E-1,1.6896782E3,1.1E0,4E-1,2.0847782E-2,1.1084261E-3,1.999082E-3,-2.3989675E-3,-7.5653903E-3,1.0567712E-2,-9.761066E-3,-1.6560934E-3,-6.4149518E-3,-1.1903626E-2,1.8660536E-3,-3.6249438E-3,-1.6521206E-2,-2.5799999E-3],"split_indices":[0,14,4,28,0,11,5,25,26,25,0,6,0,8,12,0,0,0,0,0,0,0,0,0,0,0,0,0,0],"split_type":[0,0,0,0,0,0,0,0,0,0,0,0,0,0,0,0,0,0,0,0,0,0,0,0,0,0,0,0,0],"sum_hessian":[4.5620635E3,3.3892913E3,1.1727722E3,3.2020615E3,1.8722993E2,7.7679486E2,3.959774E2,8.7659996E1,3.1144014E3,1.8043677E2,6.7931647E0,3.232067E2,4.5358813E2,3.774985E2,1.8478905E1,3.6830772E1,5.082922E1,2.8597178E3,2.5468373E2,1.7099162E2,9.445147E0,5.9215275E1,2.6399142E2,2.711987E2,1.8238943E2,2.5694238E2,1.2055612E2,1.3188155E1,5.2907486E0],"tree_param":{"num_deleted":"0","num_feature":"35","num_nodes":"29","size_leaf_vector":"1"}},{"base_weights":[2.6946914E-4,4.5577025E-1,-2.165712E-1,6.984129E-1,3.0667865E-1,-5.5763207E-2,-3.9835206E-1,6.6057736E-1,9.083508E-1,1.4623475E-2,3.382055E-1,1.8000666E-2,-1.391577E-1,-3.2878375E-1,-5.182043E-1,2.0421665E-2,7.824969E-3,3.2937024E-2,2.194266E-2,2.8942528E-3,-1.30410725E-2,1.439569E-2,8.313204E-3,-2.2866977E-3,1.456757E-3,-4.456875E-3,1.1394081E-2,-8.667053E-3,-1.4431425E-2,-1.5688553E-2,-6.905542E-6],"categories":[],"categories_nodes":[],"categories_segments":[],"categories_sizes":[],"default_left":[0,0,0,0,0,0,0,0,0,0,0,0,0,1,1,0,0,0,0,0,0,0,0,0,0,0,0,0,0,0,0],"id":5,"left_children":[1,3,5,7,9,11,13,15,17,19,21,23,25,27,29,-1,-1,-1,-1,-1,-1,-1,-1,-1,-1,-1,-1,-1,-1,-1,-1],"loss_changes":[5.17291E2,6.0890747E1,1.03697235E2,4.500061E0,9.644814E0,1.1591043E1,1.3714874E1,4.2329407E0,2.3957367E0,3.8357732E0,8.053207E0,2.8845246E0,4.372547E0,6.2762833E0,1.4996338E0,0E0,0E0,0E0,0E0,0E0,0E0,0E0,0E0,0E0,0E0,0E0,0E0,0E0,0E0,0E0,0E0],"parents":[2147483647,0,0,1,1,2,2,3,3,4,4,5,5,6,6,7,7,8,8,9,9,10,10,11,11,12,12,13,13,14,14],"right_children":[2,4,6,8,10,12,14,16,18,20,22,24,26,28,30,-1,-1,-1,-1,-1,-1,-1,-1,-1,-1,-1,-1,-1,-1,-1,-1],"split_conditions":[-5.439219E1,-1.5632545E2,5.5971443E1,2E0,4.296E2,2.620095E0,1.5866493E2,1.5566139E3,8E-1,1.325E1,-1.18150734E2,1.1E0,1.8E0,4.472E2,1.1E1,2.0421665E-2,7.824969E-3,3.2937024E-2,2.194266E-2,2.8942528E-3,-1.30410725E-2,1.439569E-2,8.313204E-3,-2.2866977E-3,1.456757E-3,-4.456875E-3,1.1394081E-2,-8.667053E-3,-1.4431425E-2,-1.5688553E-2,-6.905542E-6],"split_indices":[2,2,2,14,26,2,2,0,12,19,2,7,14,25,22,0,0,0,0,0,0,0,0,0,0,0,0,0,0,0,0],"split_type":[0,0,0,0,0,0,0,0,0,0,0,0,0,0,0,0,0,0,0,0,0,0,0,0,0,0,0,0,0,0,0],"sum_hessian":[5.2352725E3,1.688102E3,3.5471702E3,6.4107886E2,1.0470232E3,1.8828552E3,1.6643151E3,5.466982E2,9.43807E1,1.0215486E2,9.448683E2,9.995341E2,8.8332104E2,1.055432E3,6.0888306E2,5.198004E2,2.6897749E1,4.3052124E1,5.1328575E1,8.707763E1,1.5077238E1,2.826711E2,6.621972E2,2.4441058E2,7.5512354E2,8.6829913E2,1.5021915E1,8.3866144E2,2.1677055E2,6.0334344E2,5.539597E0],"tree_param":{"num_deleted":"0","num_feature":"35","num_nodes":"31","size_leaf_vector":"1"}},{"base_weights":[2.8489155E-3,-2.0142989E-1,3.9016405E-1,-4.355261E-1,-6.1180506E-2,2.4193414E-1,5.612324E-1,-5.467448E-1,-3.5699722E-1,-1.455148E-1,2.5019795E-2,1.9367293E-1,4.9628654E-1,5.000762E-1,6.896351E-1,-1.7004965E-2,-1.0384852E-2,-3.4263625E-3,-1.1569119E-2,6.7870663E-3,-4.715924E-3,1.133203E-3,-6.686466E-3,2.036842E-3,8.442145E-3,1.2717059E-2,2.3795674E-2,1.9696234E-2,1.34188095E-2,2.1157734E-2,2.8105897E-3],"categories":[],"categories_nodes":[],"categories_segments":[],"categories_sizes":[],"default_left":[0,0,0,0,0,1,0,0,0,0,0,0,0,0,1,0,0,0,0,0,0,0,0,0,0,0,0,0,0,0,0],"id":6,"left_children":[1,3,5,7,9,11,13,15,17,19,21,23,25,27,29,-1,-1,-1,-1,-1,-1,-1,-1,-1,-1,-1,-1,-1,-1,-1,-1],"loss_changes":[4.6911404E2,1.27419815E2,5.177951E1,1.250528E1,1.7658943E1,1.339016E1,7.112671E0,2.2210236E0,5.902649E0,5.367729E0,3.8083565E0,1.0188854E1,3.4155579E0,5.049118E0,2.7620087E0,0E0,0E0,0E0,0E0,0E0,0E0,0E0,0E0,0E0,0E0,0E0,0E0,0E0,0E0,0E0,0E0],"parents":[2147483647,0,0,1,1,2,2,3,3,4,4,5,5,6,6,7,7,8,8,9,9,10,10,11,11,12,12,13,13,14,14],"right_children":[2,4,6,8,10,12,14,16,18,20,22,24,26,28,30,-1,-1,-1,-1,-1,-1,-1,-1,-1,-1,-1,-1,-1,-1,-1,-1],"split_conditions":[4.829229E1,-8.420685E1,1.2897742E2,-1.7046303E2,-1.43924885E1,4.8E0,2.2436642E2,1.5333232E3,8.14E1,5.2E0,2.6E0,1.544452E3,6.175E1,8.3E1,8.4333336E1,-1.7004965E-2,-1.0384852E-2,-3.4263625E-3,-1.1569119E-2,6.7870663E-3,-4.715924E-3,1.133203E-3,-6.686466E-3,2.036842E-3,8.442145E-3,1.2717059E-2,2.3795674E-2,1.9696234E-2,1.34188095E-2,2.1157734E-2,2.8105897E-3],"split_indices":[2,2,2,2,2,17,2,0,28,22,7,0,23,28,28,0,0,0,0,0,0,0,0,0,0,0,0,0,0,0,0],"split_type":[0,0,0,0,0,0,0,0,0,0,0,0,0,0,0,0,0,0,0,0,0,0,0,0,0,0,0,0,0,0,0],"sum_hessian":[5.9271323E3,3.8807935E3,2.0463387E3,1.4531588E3,2.4276345E3,1.097647E3,9.486918E2,5.989364E2,8.542225E2,1.2267511E3,1.2008834E3,9.2407336E2,1.7357367E2,6.459367E2,3.0275507E2,5.427563E2,5.6180138E1,9.066166E1,7.635608E2,3.681783E1,1.1899333E3,1.1429315E3,5.7951958E1,3.804332E2,5.4364014E2,1.415031E2,3.2070568E1,1.6005154E2,4.8588516E2,2.9484235E2,7.9127064E0],"tree_param":{"num_deleted":"0","num_feature":"35","num_nodes":"31","size_leaf_vector":"1"}},{"base_weights":[-1.9128236E-3,4.2103574E-2,-2.0449561E-1,9.099151E-2,-4.474408E-2,-1.6669841E-1,-3.950935E-1,1.0468223E-1,-1.150519E-1,-2.6950844E-2,-2.8622976E-1,-1.0215197E-1,-2.8299692E-1,-7.0420496E-2,-4.815221E-1,2.7101112E-3,8.395164E-3,8.191986E-3,-5.062759E-3,-9.841435E-4,2.6387343E-2,3.1460472E-3,-1.0491072E-2,-2.204954E-3,-9.63302E-3,-9.384991E-3,1.05007375E-2,3.860452E-3,-1.4847641E-2,-1.5591621E-2,-5.844063E-3],"categories":[],"categories_nodes":[],"categories_segments":[],"categories_sizes":[],"default_left":[0,0,1,0,1,0,0,0,0,1,0,0,1,0,0,0,0,0,0,0,0,0,0,0,0,0,0,0,0,0,0],"id":7,"left_children":[1,3,5,7,9,11,13,15,17,19,21,23,25,27,29,-1,-1,-1,-1,-1,-1,-1,-1,-1,-1,-1,-1,-1,-1,-1,-1],"loss_changes":[4.1014362E1,1.6047375E1,5.8486443E0,6.8329544E0,5.842909E0,5.127102E0,3.7581768E0,5.6731014E0,3.1963668E0,6.7646303E0,2.3537073E0,2.7573366E0,4.7289696E0,2.5639348E0,1.0657787E0,0E0,0E0,0E0,0E0,0E0,0E0,0E0,0E0,0E0,0E0,0E0,0E0,0E0,0E0,0E0,0E0],"parents":[2147483647,0,0,1,1,2,2,3,3,4,4,5,5,6,6,7,7,8,8,9,9,10,10,11,11,12,12,13,13,14,14],"right_children":[2,4,6,8,10,12,14,16,18,20,22,24,26,28,30,-1,-1,-1,-1,-1,-1,-1,-1,-1,-1,-1,-1,-1,-1,-1,-1],"split_conditions":[1.1778863E2,1.5687628E3,5.4E0,1.5904852E3,8.74E1,1.6973217E3,4.6666665E0,1.5E1,4.762E2,8.72E1,6.67E-1,1.4E1,8.84E-1,4.274E2,9.25E0,2.7101112E-3,8.395164E-3,8.191986E-3,-5.062759E-3,-9.841435E-4,2.6387343E-2,3.1460472E-3,-1.0491072E-2,-2.204954E-3,-9.63302E-3,-9.384991E-3,1.05007375E-2,3.860452E-3,-1.4847641E-2,-1.5591621E-2,-5.844063E-3],"split_indices":[2,1,29,0,28,0,17,9,25,28,5,9,34,26,22,0,0,0,0,0,0,0,0,0,0,0,0,0,0,0,0],"split_type":[0,0,0,0,0,0,0,0,0,0,0,0,0,0,0,0,0,0,0,0,0,0,0,0,0,0,0,0,0,0,0],"sum_hessian":[4.597622E3,3.7776265E3,8.199957E2,2.4170068E3,1.3606198E3,6.858587E2,1.3413705E2,2.2668745E3,1.5013228E2,1.2682814E3,9.233837E1,4.4227274E2,2.4358597E2,2.858205E1,1.05555E2,2.0966743E3,1.7020023E2,1.7753084E1,1.323792E2,1.2611016E3,7.179787E0,1.2802339E1,7.953603E1,3.922723E2,5.0000427E1,2.3310487E2,1.0481089E1,1.9930826E1,8.651225E0,9.242846E1,1.312654E1],"tree_param":{"num_deleted":"0","num_feature":"35","num_nodes":"31","size_leaf_vector":"1"}},{"base_weights":[-4.859522E-3,1.5232448E-1,-2.8754577E-1,5.415648E-2,4.667424E-1,-3.3296153E-1,1.13041356E-1,-6.071312E-2,1.6573961E-1,2.7337689E-2,5.289976E-1,-4.078914E-1,-2.2015256E-1,2.1218249E-1,-4.0765083E-1,6.816151E-3,-3.2896725E-3,-9.21653E-4,6.901238E-3,-2.204688E-3,9.168533E-3,1.2107752E-2,2.0081589E-2,-1.0269817E-2,-1.4612996E-2,-4.9786936E-3,-1.300147E-2,-1.2245767E-2,7.3767984E-3,-2.8785778E-4,-1.4858701E-2],"categories":[],"categories_nodes":[],"categories_segments":[],"categories_sizes":[],"default_left":[0,0,0,0,0,0,0,0,0,0,0,0,0,0,0,0,0,0,0,0,0,0,0,0,0,0,0,0,0,0,0],"id":8,"left_children":[1,3,5,7,9,11,13,15,17,19,21,23,25,27,29,-1,-1,-1,-1,-1,-1,-1,-1,-1,-1,-1,-1,-1,-1,-1,-1],"loss_changes":[2.3198781E2,1.035395E2,3.397969E1,3.2798706E1,2.1820831E1,1.4076553E1,9.932085E0,1.7797447E1,1.6403015E1,2.8314126E0,1.2037933E1,5.057007E0,7.6831284E0,3.4648309E0,1.0714002E0,0E0,0E0,0E0,0E0,0E0,0E0,0E0,0E0,0E0,0E0,0E0,0E0,0E0,0E0,0E0,0E0],"parents":[2147483647,0,0,1,1,2,2,3,3,4,4,5,5,6,6,7,7,8,8,9,9,10,10,11,11,12,12,13,13,14,14],"right_children":[2,4,6,8,10,12,14,16,18,20,22,24,26,28,30,-1,-1,-1,-1,-1,-1,-1,-1,-1,-1,-1,-1,-1,-1,-1,-1],"split_conditions":[1.5499082E3,6.67E-1,1.4E0,-3.33E-1,8.1E1,2E-1,1.7098414E3,1.432775E3,5E0,5.12E1,1.4E0,1.6320555E3,8E-1,8.24E1,2.5E-1,6.816151E-3,-3.2896725E-3,-9.21653E-4,6.901238E-3,-2.204688E-3,9.168533E-3,1.2107752E-2,2.0081589E-2,-1.0269817E-2,-1.4612996E-2,-4.9786936E-3,-1.300147E-2,-1.2245767E-2,7.3767984E-3,-2.8785778E-4,-1.4858701E-2],"split_indices":[0,14,14,14,28,14,0,0,18,23,14,0,11,28,11,0,0,0,0,0,0,0,0,0,0,0,0,0,0,0,0],"split_type":[0,0,0,0,0,0,0,0,0,0,0,0,0,0,0,0,0,0,0,0,0,0,0,0,0,0,0,0,0,0,0],"sum_hessian":[5.2189956E3,3.354327E3,1.8646687E3,2.5571135E3,7.972134E2,1.6749441E3,1.8972461E2,1.260226E3,1.2968876E3,9.9111565E1,6.981018E2,1.0048726E3,6.700715E2,1.5987627E2,2.984835E1,1.8256952E2,1.0776564E3,3.1992886E2,9.7695874E2,7.329207E1,2.5819494E1,3.707735E2,3.273283E2,5.52701E2,4.5217166E2,5.356938E2,1.3437769E2,7.6673074E0,1.5220895E2,5.5860605E0,2.4262291E1],"tree_param":{"num_deleted":"0","num_feature":"35","num_nodes":"31","size_leaf_vector":"1"}},{"base_weights":[-2.4175667E-3,-1.5424702E-1,3.5770887E-1,1.4189389E-2,-3.625618E-1,4.3042022E-1,-2.1763255E-1,-4.8271015E-2,1.8638429E-1,-2.8959453E-1,-5.259394E-1,3.5324797E-1,5.982973E-1,-2.596315E-1,3.877657E-1,-1.6392583E-3,2.2924589E-2,-1.2024422E-2,6.3613974E-3,-1.0149115E-2,-4.0504625E-3,-1.7122876E-2,-1.2031563E-2,1.2801938E-2,6.2841712E-3,2.1672925E-2,1.3106421E-2,-9.46707E-3,1.5218736E-4,2.4503171E-2,-3.0361747E-4],"categories":[],"categories_nodes":[],"categories_segments":[],"categories_sizes":[],"default_left":[0,0,0,0,0,0,1,1,0,0,0,0,0,0,0,0,0,0,0,0,0,0,0,0,0,0,0,0,0,0,0],"id":9,"left_children":[1,3,5,7,9,11,13,15,17,19,21,23,25,27,29,-1,-1,-1,-1,-1,-1,-1,-1,-1,-1,-1,-1,-1,-1,-1,-1],"loss_changes":[3.25079E2,1.467474E2,7.385515E1,2.4890144E1,2.2137665E1,2.007312E1,5.147626E0,8.832466E0,9.367071E0,9.702995E0,2.9956512E0,1.1268784E1,9.535461E0,2.758892E0,2.274784E0,0E0,0E0,0E0,0E0,0E0,0E0,0E0,0E0,0E0,0E0,0E0,0E0,0E0,0E0,0E0,0E0],"parents":[2147483647,0,0,1,1,2,2,3,3,4,4,5,5,6,6,7,7,8,8,9,9,10,10,11,11,12,12,13,13,14,14],"right_children":[2,4,6,8,10,12,14,16,18,20,22,24,26,28,30,-1,-1,-1,-1,-1,-1,-1,-1,-1,-1,-1,-1,-1,-1,-1,-1],"split_conditions":[1.5754056E3,1.5223942E3,1.6656995E3,1.5144014E3,1.6426881E3,1.6827252E3,8.68E1,8E0,1.156E0,1.5196335E3,1.5144014E3,1.5327749E3,1.5116365E3,1.7098414E3,7E0,-1.6392583E-3,2.2924589E-2,-1.2024422E-2,6.3613974E-3,-1.0149115E-2,-4.0504625E-3,-1.7122876E-2,-1.2031563E-2,1.2801938E-2,6.2841712E-3,2.1672925E-2,1.3106421E-2,-9.46707E-3,1.5218736E-4,2.4503171E-2,-3.0361747E-4],"split_indices":[0,1,1,0,1,0,27,29,34,0,0,1,1,0,10,0,0,0,0,0,0,0,0,0,0,0,0,0,0,0,0],"split_type":[0,0,0,0,0,0,0,0,0,0,0,0,0,0,0,0,0,0,0,0,0,0,0,0,0,0,0,0,0,0,0],"sum_hessian":[5.943347E3,4.181146E3,1.7622012E3,2.3123713E3,1.8687748E3,1.5647063E3,1.9749481E2,1.6973938E3,6.149774E2,1.2937407E3,5.750341E2,1.0740673E3,4.90639E2,1.852167E2,1.2278106E1,1.685112E3,1.2281701E1,2.513881E1,5.898386E2,9.828477E2,3.1089297E2,4.205317E2,1.5450243E2,7.09484E2,3.6458328E2,2.7538516E2,2.1525383E2,1.5274615E2,3.247056E1,5.401429E0,6.876677E0],"tree_param":{"num_deleted":"0","num_feature":"35","num_nodes":"31","size_leaf_vector":"1"}},{"base_weights":[3.525251E-6,3.852235E-2,-1.002855E-1,8.013768E-2,-5.8245234E-2,1.0395997E-1,-1.3256244E-1,5.8928903E-2,1.7591855E-1,-7.2785593E-3,-1.748117E-1,2.962778E-2,3.40144E-1,-9.965049E-2,-4.1378424E-1,1.0965858E-2,1.5522843E-3,1.3874859E-2,4.434275E-3,-1.2815589E-3,5.673542E-3,-6.041288E-3,6.1070663E-3,3.4929595E-3,-6.9306456E-3,2.0698786E-2,-5.201769E-3,8.323004E-3,-3.5722284E-3,-1.576277E-2,-9.077524E-3],"categories":[],"categories_nodes":[],"categories_segments":[],"categories_sizes":[],"default_left":[0,0,0,0,0,1,1,0,0,0,0,0,0,0,0,0,0,0,0,0,0,0,0,0,0,0,0,0,0,0,0],"id":10,"left_children":[1,3,5,7,9,11,13,15,17,19,21,23,25,27,29,-1,-1,-1,-1,-1,-1,-1,-1,-1,-1,-1,-1,-1,-1,-1,-1],"loss_changes":[1.7591053E1,1.3253817E1,8.344246E0,4.664033E0,5.880248E0,3.0271764E0,1.00625E1,4.1351604E0,3.2879887E0,4.8097076E0,3.0677977E0,3.0289457E0,7.5422115E0,7.200588E0,1.2569466E0,0E0,0E0,0E0,0E0,0E0,0E0,0E0,0E0,0E0,0E0,0E0,0E0,0E0,0E0,0E0,0E0],"parents":[2147483647,0,0,1,1,2,2,3,3,4,4,5,5,6,6,7,7,8,8,9,9,10,10,11,11,12,12,13,13,14,14],"right_children":[2,4,6,8,10,12,14,16,18,20,22,24,26,28,30,-1,-1,-1,-1,-1,-1,-1,-1,-1,-1,-1,-1,-1,-1,-1,-1],"split_conditions":[1.667E0,1.5698855E3,5.2E0,1.667E0,2.25E0,5.4E0,5.236E2,6.96E1,3.6666667E0,1.667E0,1E0,1.5303186E3,5.31E2,1.2E0,1.333E0,1.0965858E-2,1.5522843E-3,1.3874859E-2,4.434275E-3,-1.2815589E-3,5.673542E-3,-6.041288E-3,6.1070663E-3,3.4929595E-3,-6.9306456E-3,2.0698786E-2,-5.201769E-3,8.323004E-3,-3.5722284E-3,-1.576277E-2,-9.077524E-3],"split_indices":[5,1,29,4,4,18,25,28,18,3,15,1,26,3,6,0,0,0,0,0,0,0,0,0,0,0,0,0,0,0,0],"split_type":[0,0,0,0,0,0,0,0,0,0,0,0,0,0,0,0,0,0,0,0,0,0,0,0,0,0,0,0,0,0,0],"sum_hessian":[4.55171E3,3.289067E3,1.262643E3,2.3000793E3,9.889874E2,1.7200299E2,1.0906399E3,1.8844259E3,4.1565353E2,6.888584E2,3.0012903E2,1.316845E2,4.0318497E1,9.775855E2,1.1305444E2,4.201376E1,1.8424121E3,3.574793E1,3.799056E2,5.842179E2,1.0464052E2,2.8087753E2,1.9251482E1,9.920086E1,3.2483627E1,2.3777779E1,1.6540718E1,4.7238457E1,9.3034705E2,5.455643E1,5.849801E1],"tree_param":{"num_deleted":"0","num_feature":"35","num_nodes":"31","size_leaf_vector":"1"}},{"base_weights":[1.0536819E-2,-1.4720885E-1,3.6720833E-1,-7.5979284E-3,-3.8268682E-1,5.578801E-1,3.0818542E-2,-1.0177811E-1,1.4076047E-1,-2.8369418E-1,-4.5562896E-1,4.5128497E-1,7.1610427E-1,-1.3960364E-1,3.1880954E-1,3.2791048E-3,-4.28108E-3,1.1540951E-2,2.849663E-3,-1.0580119E-2,-4.410204E-3,-1.50374025E-2,-1.0467605E-2,1.5032054E-2,4.5019127E-3,9.198596E-3,2.2376379E-2,-4.8462823E-3,1.3233187E-2,1.2574393E-2,-1.4623405E-3],"categories":[],"categories_nodes":[],"categories_segments":[],"categories_sizes":[],"default_left":[0,0,0,0,0,0,0,0,0,0,0,0,0,1,0,0,0,0,0,0,0,0,0,0,0,0,0,0,0,0,0],"id":11,"left_children":[1,3,5,7,9,11,13,15,17,19,21,23,25,27,29,-1,-1,-1,-1,-1,-1,-1,-1,-1,-1,-1,-1,-1,-1,-1,-1],"loss_changes":[2.914289E2,1.1806589E2,1.0185971E2,3.153168E1,9.522934E0,1.677353E1,2.8298233E1,1.1939717E1,9.748013E0,5.319866E0,3.5634918E0,9.047668E0,4.7253723E0,4.6876736E0,7.9242954E0,0E0,0E0,0E0,0E0,0E0,0E0,0E0,0E0,0E0,0E0,0E0,0E0,0E0,0E0,0E0,0E0],"parents":[2147483647,0,0,1,1,2,2,3,3,4,4,5,5,6,6,7,7,8,8,9,9,10,10,11,11,12,12,13,13,14,14],"right_children":[2,4,6,8,10,12,14,16,18,20,22,24,26,28,30,-1,-1,-1,-1,-1,-1,-1,-1,-1,-1,-1,-1,-1,-1,-1,-1],"split_conditions":[1.5715431E3,1.544452E3,1.5472849E3,1.4987396E3,1.6051102E3,1.65647E3,1.668462E3,1.4361343E3,1.4348895E3,1.5016971E3,1.5090593E3,1.5205424E3,5.2E0,6.8E0,1.6866537E3,3.2791048E-3,-4.28108E-3,1.1540951E-2,2.849663E-3,-1.0580119E-2,-4.410204E-3,-1.50374025E-2,-1.0467605E-2,1.5032054E-2,4.5019127E-3,9.198596E-3,2.2376379E-2,-4.8462823E-3,1.3233187E-2,1.2574393E-2,-1.4623405E-3],"split_indices":[1,0,0,1,0,1,1,0,0,1,1,0,18,18,0,0,0,0,0,0,0,0,0,0,0,0,0,0,0,0,0],"split_type":[0,0,0,0,0,0,0,0,0,0,0,0,0,0,0,0,0,0,0,0,0,0,0,0,0,0,0,0,0,0,0],"sum_hessian":[5.1777646E3,3.590414E3,1.5873507E3,2.2546829E3,1.3357312E3,1.0126845E3,5.7466614E2,1.3793588E3,8.7532416E2,5.687488E2,7.6698236E2,6.073601E2,4.0532443E2,3.6134882E2,2.1331734E2,2.2372968E2,1.155629E3,1.3712401E2,7.382002E2,3.7694904E2,1.9179974E2,5.347013E2,2.3228108E2,5.206481E2,8.671207E1,2.8240557E1,3.7708386E2,3.4888965E2,1.2459163E1,1.6746223E2,4.5855106E1],"tree_param":{"num_deleted":"0","num_feature":"35","num_nodes":"31","size_leaf_vector":"1"}},{"base_weights":[6.649763E-3,-1.875284E-1,3.7638673E-1,-3.9299557E-1,-5.2715745E-2,2.516256E-1,5.528055E-1,-4.9743026E-1,-3.09589E-1,-1.333509E-1,2.586371E-2,2.2429164E-1,5.9847987E-1,5.320609E-1,7.980109E-1,-1.6605623E-2,-1.29795745E-2,4.8577157E-4,-9.944367E-3,9.46287E-3,-4.424588E-3,4.4009572E-5,7.326917E-3,5.3325696E-3,9.740702E-3,1.2593366E-2,2.64933E-2,1.4909223E-2,2.0309253E-2,2.5546271E-2,8.292415E-3],"categories":[],"categories_nodes":[],"categories_segments":[],"categories_sizes":[],"default_left":[0,0,0,0,0,1,1,0,0,0,1,0,0,0,1,0,0,0,0,0,0,0,0,0,0,0,0,0,0,0,0],"id":12,"left_children":[1,3,5,7,9,11,13,15,17,19,21,23,25,27,29,-1,-1,-1,-1,-1,-1,-1,-1,-1,-1,-1,-1,-1,-1,-1,-1],"loss_changes":[4.272561E2,1.0806041E2,4.4963776E1,1.3309952E1,1.493927E1,1.1263344E1,3.889038E0,2.2482758E0,6.152725E0,7.427658E0,6.36408E0,5.1565094E0,4.065462E0,3.6543274E0,1.555706E0,0E0,0E0,0E0,0E0,0E0,0E0,0E0,0E0,0E0,0E0,0E0,0E0,0E0,0E0,0E0,0E0],"parents":[2147483647,0,0,1,1,2,2,3,3,4,4,5,5,6,6,7,7,8,8,9,9,10,10,11,11,12,12,13,13,14,14],"right_children":[2,4,6,8,10,12,14,16,18,20,22,24,26,28,30,-1,-1,-1,-1,-1,-1,-1,-1,-1,-1,-1,-1,-1,-1,-1,-1],"split_conditions":[4.829229E1,-7.7667755E1,1.4245348E2,-1.5906427E2,-1.43924885E1,5.488E2,6.3E1,-2.098579E2,1.1666667E1,5.3333335E0,4.656E2,1.0315507E2,1.05E1,2.6283826E2,8.4333336E1,-1.6605623E-2,-1.29795745E-2,4.8577157E-4,-9.944367E-3,9.46287E-3,-4.424588E-3,4.4009572E-5,7.326917E-3,5.3325696E-3,9.740702E-3,1.2593366E-2,2.64933E-2,1.4909223E-2,2.0309253E-2,2.5546271E-2,8.292415E-3],"split_indices":[2,2,2,2,2,25,23,2,20,22,25,2,21,2,28,0,0,0,0,0,0,0,0,0,0,0,0,0,0,0,0],"split_type":[0,0,0,0,0,0,0,0,0,0,0,0,0,0,0,0,0,0,0,0,0,0,0,0,0,0,0,0,0,0,0],"sum_hessian":[5.9490864E3,3.900905E3,2.0481814E3,1.5447086E3,2.3561963E3,1.2011614E3,8.4702E2,6.836882E2,8.6102045E2,1.1625432E3,1.1936531E3,1.1149445E3,8.621693E1,7.8387366E2,6.3146362E1,3.6236996E2,3.2131824E2,5.4227604E1,8.0679285E2,3.4848045E1,1.1276952E3,1.0746016E3,1.19051605E2,7.637032E2,3.5124124E2,5.448446E1,3.1732468E1,6.3464246E2,1.4923119E2,5.6695168E1,6.4511943E0],"tree_param":{"num_deleted":"0","num_feature":"35","num_nodes":"31","size_leaf_vector":"1"}},{"base_weights":[2.8785923E-3,4.5378402E-2,-1.9437979E-1,-8.5342385E-2,8.3270475E-2,-1.7043072E-1,-4.5778412E-1,-6.156363E-2,-3.0664948E-1,1.7994738E-1,5.910199E-2,-1.4652708E-1,-3.1431398E-1,-5.277074E-1,-1.0532045E-3,-2.2105593E-3,1.4118043E-2,-1.0787903E-2,3.9026807E-3,1.4471558E-2,4.1457284E-3,-1.9437005E-3,2.3197068E-3,-4.7710063E-3,3.2934614E-3,-1.9358859E-3,-1.1358646E-2,-6.9767954E-3,-1.7010026E-2],"categories":[],"categories_nodes":[],"categories_segments":[],"categories_sizes":[],"default_left":[0,0,1,1,0,0,1,0,0,0,0,0,0,0,0,0,0,0,0,0,0,0,0,0,0,0,0,0,0],"id":13,"left_children":[1,3,5,7,9,11,13,15,17,19,21,23,25,27,-1,-1,-1,-1,-1,-1,-1,-1,-1,-1,-1,-1,-1,-1,-1],"loss_changes":[3.851299E1,1.8728296E1,5.059002E0,4.453463E0,6.8370132E0,2.5267448E0,1.9698143E0,4.993108E0,1.9476914E0,7.3291473E0,5.301241E0,2.079749E0,1.6733904E0,5.3678703E-1,0E0,0E0,0E0,0E0,0E0,0E0,0E0,0E0,0E0,0E0,0E0,0E0,0E0,0E0,0E0],"parents":[2147483647,0,0,1,1,2,2,3,3,4,4,5,5,6,6,7,7,8,8,9,9,10,10,11,11,12,12,13,13],"right_children":[2,4,6,8,10,12,14,16,18,20,22,24,26,28,-1,-1,-1,-1,-1,-1,-1,-1,-1,-1,-1,-1,-1,-1,-1],"split_conditions":[1.1778863E2,-1.1417878E2,1.0666667E1,1.64E1,5E0,2.6283826E2,9.4E0,1E0,8.5E0,7.26E1,1.34E1,1.2E0,1.4024874E3,5.2E0,-1.0532045E-3,-2.2105593E-3,1.4118043E-2,-1.0787903E-2,3.9026807E-3,1.4471558E-2,4.1457284E-3,-1.9437005E-3,2.3197068E-3,-4.7710063E-3,3.2934614E-3,-1.9358859E-3,-1.1358646E-2,-6.9767954E-3,-1.7010026E-2],"split_indices":[2,2,21,20,29,2,22,15,18,28,20,14,1,29,0,0,0,0,0,0,0,0,0,0,0,0,0,0,0],"split_type":[0,0,0,0,0,0,0,0,0,0,0,0,0,0,0,0,0,0,0,0,0,0,0,0,0,0,0,0,0],"sum_hessian":[4.591882E3,3.7785532E3,8.1332874E2,8.488662E2,2.929687E3,7.4705273E2,6.627601E1,7.6766156E2,8.1204636E1,5.846339E2,2.3450532E3,6.423553E2,1.04697464E2,5.6655098E1,9.62091E0,7.5140753E2,1.6254055E1,7.2581924E1,8.622715E0,6.9645515E1,5.149884E2,3.0035123E2,2.0447019E3,6.12832E2,2.9523293E1,2.1846077E1,8.285139E1,7.469269E0,4.918583E1],"tree_param":{"num_deleted":"0","num_feature":"35","num_nodes":"29","size_leaf_vector":"1"}},{"base_weights":[-5.526757E-3,3.9264843E-1,-2.129743E-1,6.300891E-1,2.5681132E-1,-6.6535376E-2,-3.7753636E-1,1.88938E-2,6.503521E-1,-2.3604233E-3,2.935178E-1,8.510736E-3,-1.4509833E-1,-3.1069234E-1,-4.9157605E-1,1.4073073E-2,-5.6819147E-3,1.6565792E-2,2.2543576E-2,1.5962942E-2,-1.9263069E-3,1.0914919E-2,5.061975E-3,1.0025829E-2,-1.6593513E-4,-9.141154E-3,-3.156366E-3,-7.806415E-3,-1.2860553E-2,-4.7491677E-3,-1.5023471E-2],"categories":[],"categories_nodes":[],"categories_segments":[],"categories_sizes":[],"default_left":[0,0,0,0,0,0,0,0,0,0,0,0,0,1,0,0,0,0,0,0,0,0,0,0,0,0,0,0,0,0,0],"id":14,"left_children":[1,3,5,7,9,11,13,15,17,19,21,23,25,27,29,-1,-1,-1,-1,-1,-1,-1,-1,-1,-1,-1,-1,-1,-1,-1,-1],"loss_changes":[4.300855E2,5.7362762E1,8.247005E1,8.017181E0,1.0809532E1,1.0688022E1,1.2132904E1,2.1363857E0,5.8124084E0,4.726364E0,8.670822E0,4.2457595E0,5.6057816E0,5.956627E0,1.7428284E0,0E0,0E0,0E0,0E0,0E0,0E0,0E0,0E0,0E0,0E0,0E0,0E0,0E0,0E0,0E0,0E0],"parents":[2147483647,0,0,1,1,2,2,3,3,4,4,5,5,6,6,7,7,8,8,9,9,10,10,11,11,12,12,13,13,14,14],"right_children":[2,4,6,8,10,12,14,16,18,20,22,24,26,28,30,-1,-1,-1,-1,-1,-1,-1,-1,-1,-1,-1,-1,-1,-1,-1,-1],"split_conditions":[-4.914375E1,-1.5632545E2,5.5971443E1,4.2E0,5.025E1,2.620095E0,1.5866493E2,1.6054651E3,2.2E0,1.4851152E3,-8.086228E1,7.12E1,1E0,3.4E0,1.568374E3,1.4073073E-2,-5.6819147E-3,1.6565792E-2,2.2543576E-2,1.5962942E-2,-1.9263069E-3,1.0914919E-2,5.061975E-3,1.0025829E-2,-1.6593513E-4,-9.141154E-3,-3.156366E-3,-7.806415E-3,-1.2860553E-2,-4.7491677E-3,-1.5023471E-2],"split_indices":[2,2,2,18,24,2,2,1,4,1,2,27,7,29,0,0,0,0,0,0,0,0,0,0,0,0,0,0,0,0,0],"split_type":[0,0,0,0,0,0,0,0,0,0,0,0,0,0,0,0,0,0,0,0,0,0,0,0,0,0,0,0,0,0,0],"sum_hessian":[5.2048047E3,1.7825267E3,3.422278E3,6.4734375E2,1.135183E3,1.8115963E3,1.6106816E3,2.0834736E1,6.2650903E2,1.409463E2,9.942367E2,9.2699225E2,8.846041E2,1.01781604E3,5.928656E2,6.1941957E0,1.464054E1,3.211574E2,3.053516E2,1.3830519E1,1.2711578E2,6.346912E2,3.595455E2,3.7373077E1,8.8961914E2,1.7553812E2,7.0906604E2,7.150962E2,3.0271988E2,1.6426353E1,5.764393E2],"tree_param":{"num_deleted":"0","num_feature":"35","num_nodes":"31","size_leaf_vector":"1"}},{"base_weights":[3.8278808E-3,-1.9101758E-1,3.6960787E-1,-4.0500465E-1,-5.0716374E-2,2.3663153E-1,5.4088736E-1,-5.283945E-1,-3.291723E-1,-1.3179752E-1,2.419817E-2,9.7744375E-2,3.1048948E-1,4.7202495E-1,6.1463237E-1,-1.623957E-2,-5.179542E-3,2.0489072E-2,-1.006913E-2,-1.4714915E-3,-6.0319295E-3,-6.8635675E-3,1.1253416E-3,3.982835E-4,9.239337E-3,8.653549E-3,2.0742271E-2,1.364167E-2,2.271087E-2,1.1867319E-3,1.8905183E-2],"categories":[],"categories_nodes":[],"categories_segments":[],"categories_sizes":[],"default_left":[0,0,0,0,0,0,0,0,0,0,0,1,1,1,0,0,0,0,0,0,0,0,0,0,0,0,0,0,0,0,0],"id":15,"left_children":[1,3,5,7,9,11,13,15,17,19,21,23,25,27,29,-1,-1,-1,-1,-1,-1,-1,-1,-1,-1,-1,-1,-1,-1,-1,-1],"loss_changes":[4.226044E2,1.1613002E2,4.680948E1,1.41601715E1,1.4203619E1,1.1888428E1,4.279907E0,2.5799713E0,6.4554443E0,6.4260597E0,4.10402E0,7.184996E0,6.164322E0,1.9718628E0,3.8290405E0,0E0,0E0,0E0,0E0,0E0,0E0,0E0,0E0,0E0,0E0,0E0,0E0,0E0,0E0,0E0,0E0],"parents":[2147483647,0,0,1,1,2,2,3,3,4,4,5,5,6,6,7,7,8,8,9,9,10,10,11,11,12,12,13,13,14,14],"right_children":[2,4,6,8,10,12,14,16,18,20,22,24,26,28,30,-1,-1,-1,-1,-1,-1,-1,-1,-1,-1,-1,-1,-1,-1,-1,-1],"split_conditions":[4.829229E1,-7.7667755E1,1.3691101E2,-1.7046303E2,-1.43924885E1,1.5389768E3,1.6827252E3,1.5608602E3,1.4600679E3,7E0,5.2E0,3.752E2,6.16E1,8.2E0,1.4536908E2,-1.623957E-2,-5.179542E-3,2.0489072E-2,-1.006913E-2,-1.4714915E-3,-6.0319295E-3,-6.8635675E-3,1.1253416E-3,3.982835E-4,9.239337E-3,8.653549E-3,2.0742271E-2,1.364167E-2,2.271087E-2,1.1867319E-3,1.8905183E-2],"split_indices":[2,2,2,2,2,0,0,0,1,10,21,25,23,22,2,0,0,0,0,0,0,0,0,0,0,0,0,0,0,0,0],"split_type":[0,0,0,0,0,0,0,0,0,0,0,0,0,0,0,0,0,0,0,0,0,0,0,0,0,0,0,0,0,0,0],"sum_hessian":[5.927587E3,3.867765E3,2.059822E3,1.530921E3,2.336844E3,1.1609086E3,8.989136E2,5.804612E2,9.504598E2,1.1218689E3,1.214975E3,4.0383505E2,7.570735E2,4.6867242E2,4.3024112E2,5.596084E2,2.085278E1,5.3686676E0,9.450911E2,5.1196783E2,6.0990106E2,5.993217E1,1.1550428E3,2.8884515E2,1.14989914E2,7.173301E2,3.9743416E1,4.442948E2,2.437764E1,1.1413935E1,4.1882718E2],"tree_param":{"num_deleted":"0","num_feature":"35","num_nodes":"31","size_leaf_vector":"1"}},{"base_weights":[3.8485788E-4,4.2090565E-2,-1.9333464E-1,-6.353104E-2,7.876693E-2,-1.4076546E-1,-2.9114783E-1,2.1204785E-1,-8.08552E-2,7.196149E-2,3.777142E-1,-1.9500303E-1,-4.8423912E-2,1.8543766E-1,-3.2116604E-1,1.2504701E-2,-2.867156E-3,3.1329952E-3,-3.0224836E-3,2.3445986E-2,2.0842883E-3,2.3559103E-2,-2.1002856E-4,-5.058453E-3,-1.3948489E-2,1.6098282E-4,-1.0848273E-2,1.5387769E-2,-6.7285667E-3,-8.86465E-3,-1.6562698E-2],"categories":[],"categories_nodes":[],"categories_segments":[],"categories_sizes":[],"default_left":[0,0,0,0,1,0,0,0,0,0,0,1,0,0,1,0,0,0,0,0,0,0,0,0,0,0,0,0,0,0,0],"id":16,"left_children":[1,3,5,7,9,11,13,15,17,19,21,23,25,27,29,-1,-1,-1,-1,-1,-1,-1,-1,-1,-1,-1,-1,-1,-1,-1,-1],"loss_changes":[3.6796158E1,1.4522516E1,4.1076508E0,4.6312523E0,5.6329613E0,2.6285496E0,4.0810986E0,3.658117E0,3.3650632E0,4.7447844E0,9.678712E0,2.2829056E0,3.307626E0,2.4350643E0,1.4071026E0,0E0,0E0,0E0,0E0,0E0,0E0,0E0,0E0,0E0,0E0,0E0,0E0,0E0,0E0,0E0,0E0],"parents":[2147483647,0,0,1,1,2,2,3,3,4,4,5,5,6,6,7,7,8,8,9,9,10,10,11,11,12,12,13,13,14,14],"right_children":[2,4,6,8,10,12,14,16,18,20,22,24,26,28,30,-1,-1,-1,-1,-1,-1,-1,-1,-1,-1,-1,-1,-1,-1,-1,-1],"split_conditions":[1.1778863E2,-9.9364586E1,1.6973217E3,1E0,1.725E1,1.7639658E2,1.3666667E1,1.25E0,3.3E-1,-2.6E0,8.3333336E1,1.6E1,1.3E1,7E0,8.84E1,1.2504701E-2,-2.867156E-3,3.1329952E-3,-3.0224836E-3,2.3445986E-2,2.0842883E-3,2.3559103E-2,-2.1002856E-4,-5.058453E-3,-1.3948489E-2,1.6098282E-4,-1.0848273E-2,1.5387769E-2,-6.7285667E-3,-8.86465E-3,-1.6562698E-2],"split_indices":[2,2,0,6,20,2,19,8,12,13,28,19,9,9,27,0,0,0,0,0,0,0,0,0,0,0,0,0,0,0,0],"split_type":[0,0,0,0,0,0,0,0,0,0,0,0,0,0,0,0,0,0,0,0,0,0,0,0,0,0,0,0,0,0,0],"sum_hessian":[4.552419E3,3.7465996E3,8.058195E2,9.654726E2,2.781127E3,5.257156E2,2.8010394E2,5.643942E1,9.090332E2,2.7204377E3,6.0689144E1,3.304886E2,1.9522699E2,1.6290451E1,2.638135E2,3.367064E1,2.276878E1,8.772672E1,8.2130646E2,8.400767E0,2.712037E3,2.8962914E1,3.1726229E1,3.0253928E2,2.7949324E1,1.6745007E2,2.7776924E1,8.913828E0,7.376623E0,2.3946558E2,2.4347916E1],"tree_param":{"num_deleted":"0","num_feature":"35","num_nodes":"31","size_leaf_vector":"1"}},{"base_weights":[-4.8509547E-3,3.8990745E-1,-2.0668739E-1,6.147955E-1,2.5795949E-1,-5.2088533E-2,-3.8213232E-1,5.767167E-1,8.198612E-1,1.5594764E-2,2.982548E-1,1.525846E-2,-1.252359E-1,-3.0515316E-1,-4.9116263E-1,1.774322E-2,-3.5677205E-3,1.9075058E-2,2.9296985E-2,2.8807286E-3,-6.9315596E-3,1.5271768E-2,7.7548544E-3,1.1864991E-2,1.07795786E-4,-8.058942E-3,-2.9556197E-3,-7.997664E-3,-1.3047948E-2,-4.561314E-3,-1.5013588E-2],"categories":[],"categories_nodes":[],"categories_segments":[],"categories_sizes":[],"default_left":[0,0,0,0,0,0,0,0,0,0,0,0,0,1,0,0,0,0,0,0,0,0,0,0,0,0,0,0,0,0,0],"id":17,"left_children":[1,3,5,7,9,11,13,15,17,19,21,23,25,27,29,-1,-1,-1,-1,-1,-1,-1,-1,-1,-1,-1,-1,-1,-1,-1,-1],"loss_changes":[4.1155032E2,5.1695404E1,9.268207E1,4.5672455E0,1.07677765E1,8.957716E0,1.3285645E1,5.6805725E0,2.2256775E0,3.1625164E0,7.795082E0,4.2009106E0,3.312377E0,4.5933304E0,2.00589E0,0E0,0E0,0E0,0E0,0E0,0E0,0E0,0E0,0E0,0E0,0E0,0E0,0E0,0E0,0E0,0E0],"parents":[2147483647,0,0,1,1,2,2,3,3,4,4,5,5,6,6,7,7,8,8,9,9,10,10,11,11,12,12,13,13,14,14],"right_children":[2,4,6,8,10,12,14,16,18,20,22,24,26,28,30,-1,-1,-1,-1,-1,-1,-1,-1,-1,-1,-1,-1,-1,-1,-1,-1],"split_conditions":[-5.1612705E1,-1.5632545E2,5.5971443E1,2E0,4.61E2,2.620095E0,1.4807257E2,2.25E0,7E0,4.25E0,8.08E1,7.02E1,-1E0,7.94E1,1.559331E3,1.774322E-2,-3.5677205E-3,1.9075058E-2,2.9296985E-2,2.8807286E-3,-6.9315596E-3,1.5271768E-2,7.7548544E-3,1.1864991E-2,1.07795786E-4,-8.058942E-3,-2.9556197E-3,-7.997664E-3,-1.3047948E-2,-4.561314E-3,-1.5013588E-2],"split_indices":[2,2,2,14,26,2,2,5,10,17,27,27,14,27,0,0,0,0,0,0,0,0,0,0,0,0,0,0,0,0,0],"split_type":[0,0,0,0,0,0,0,0,0,0,0,0,0,0,0,0,0,0,0,0,0,0,0,0,0,0,0,0,0,0,0],"sum_hessian":[5.163246E3,1.7464835E3,3.4167625E3,6.4444763E2,1.1020359E3,1.8169746E3,1.5997878E3,5.467362E2,9.77114E1,1.5730125E2,9.447346E2,9.464066E2,8.70568E2,9.399497E2,6.598381E2,5.3555054E2,1.1185684E1,4.7264297E1,5.0447105E1,1.1908067E2,3.822057E1,1.480382E2,7.966965E2,2.71908E1,9.1921576E2,1.3529723E2,7.3527075E2,7.2697845E2,2.1297128E2,1.8057577E1,6.417805E2],"tree_param":{"num_deleted":"0","num_feature":"35","num_nodes":"31","size_leaf_vector":"1"}},{"base_weights":[2.3814423E-3,-1.5040228E-1,3.0125472E-1,1.3527113E-2,-3.5141718E-1,3.964393E-1,-4.90343E-2,-4.6010766E-2,1.1650391E-1,-2.9132265E-1,-5.0209194E-1,2.5893337E-1,4.7541338E-1,1.197795E-1,-2.2980647E-1,7.959814E-3,-2.4219216E-3,2.0526513E-3,8.711419E-3,1.2276691E-3,-9.267432E-3,-1.1583638E-2,-1.6313465E-2,1.6206948E-2,5.1923646E-3,1.246503E-2,1.7588973E-2,8.9738885E-4,1.034815E-2,-7.969144E-3,1.5740037E-2],"categories":[],"categories_nodes":[],"categories_segments":[],"categories_sizes":[],"default_left":[0,0,0,0,0,0,0,0,1,0,0,0,0,0,1,0,0,0,0,0,0,0,0,0,0,0,0,0,0,0,0],"id":18,"left_children":[1,3,5,7,9,11,13,15,17,19,21,23,25,27,29,-1,-1,-1,-1,-1,-1,-1,-1,-1,-1,-1,-1,-1,-1,-1,-1],"loss_changes":[2.731056E2,1.304208E2,6.747649E1,1.3376614E1,1.5951294E1,1.715416E1,1.3246917E1,1.4967335E1,6.6623363E0,7.454796E0,2.2341003E0,1.3976887E1,6.4621735E0,4.53547E0,5.8036957E0,0E0,0E0,0E0,0E0,0E0,0E0,0E0,0E0,0E0,0E0,0E0,0E0,0E0,0E0,0E0,0E0],"parents":[2147483647,0,0,1,1,2,2,3,3,4,4,5,5,6,6,7,7,8,8,9,9,10,10,11,11,12,12,13,13,14,14],"right_children":[2,4,6,8,10,12,14,16,18,20,22,24,26,28,30,-1,-1,-1,-1,-1,-1,-1,-1,-1,-1,-1,-1,-1,-1,-1,-1],"split_conditions":[1.5578845E3,1.5223942E3,1.607275E3,1.4957799E3,1.6508545E3,1.6066847E3,1.668462E3,1.4199657E3,4.274E2,6.8E0,6.67E-1,1.453333E3,1.6973217E3,1.6827252E3,8.68E1,7.959814E-3,-2.4219216E-3,2.0526513E-3,8.711419E-3,1.2276691E-3,-9.267432E-3,-1.1583638E-2,-1.6313465E-2,1.6206948E-2,5.1923646E-3,1.246503E-2,1.7588973E-2,8.9738885E-4,1.034815E-2,-7.969144E-3,1.5740037E-2],"split_indices":[0,1,1,0,1,0,1,1,25,22,14,1,0,0,27,0,0,0,0,0,0,0,0,0,0,0,0,0,0,0,0],"split_type":[0,0,0,0,0,0,0,0,0,0,0,0,0,0,0,0,0,0,0,0,0,0,0,0,0,0,0,0,0,0,0],"sum_hessian":[5.978906E3,3.9567275E3,2.0221782E3,2.1799182E3,1.7768092E3,1.5899948E3,4.3218356E2,1.3816472E3,7.9827094E2,1.2723024E3,5.045069E2,5.816068E2,1.00838794E3,2.2365816E2,2.085254E2,1.3795415E2,1.2436931E3,6.264359E2,1.7183505E2,6.3911785E1,1.2083906E3,1.361201E2,3.6838678E2,1.3476463E2,4.4684216E2,6.5774866E2,3.5063928E2,1.6066542E2,6.2992737E1,1.9968962E2,8.835786E0],"tree_param":{"num_deleted":"0","num_feature":"35","num_nodes":"31","size_leaf_vector":"1"}},{"base_weights":[4.6050714E-4,4.17528E-2,-1.931028E-1,-6.690975E-2,7.508644E-2,-1.3635826E-1,-3.13224E-1,-2.5028712E-1,-5.021734E-2,1.0289859E-1,-1.0198355E-2,-1.0113592E-1,-3.348044E-1,-3.9796078E-1,-1.3829933E-1,-8.954463E-3,6.0521387E-3,-9.6175197E-4,-7.1332157E-3,3.7465417E-3,-3.711152E-4,5.1140757E-3,-1.3229451E-3,-1.5009156E-2,-2.5965904E-3,-1.1691639E-2,1.095316E-2,-1.2741594E-2,9.358414E-3,-5.5632824E-3,1.1898798E-2],"categories":[],"categories_nodes":[],"categories_segments":[],"categories_sizes":[],"default_left":[0,0,0,0,0,1,0,1,1,1,0,0,0,1,1,0,0,0,0,0,0,0,0,0,0,0,0,0,0,0,0],"id":19,"left_children":[1,3,5,7,9,11,13,15,17,19,21,23,25,27,29,-1,-1,-1,-1,-1,-1,-1,-1,-1,-1,-1,-1,-1,-1,-1,-1],"loss_changes":[3.659018E1,1.3671486E1,5.443655E0,2.7002661E0,6.850786E0,3.7995224E0,3.7612915E0,1.6656184E0,2.763234E0,5.5206413E0,4.3624854E0,2.6762586E0,3.3031683E0,3.4172459E0,2.2310596E0,0E0,0E0,0E0,0E0,0E0,0E0,0E0,0E0,0E0,0E0,0E0,0E0,0E0,0E0,0E0,0E0],"parents":[2147483647,0,0,1,1,2,2,3,3,4,4,5,5,6,6,7,7,8,8,9,9,10,10,11,11,12,12,13,13,14,14],"right_children":[2,4,6,8,10,12,14,16,18,20,22,24,26,28,30,-1,-1,-1,-1,-1,-1,-1,-1,-1,-1,-1,-1,-1,-1,-1,-1],"split_conditions":[1.1778863E2,-1.1193964E2,1.7052135E3,-2.8959177E2,1.5578845E3,5.5E0,1.5294745E3,7E0,1.6333334E1,5E0,5.044E2,1.1E1,1.525E1,1.6E1,5.006E2,-8.954463E-3,6.0521387E-3,-9.6175197E-4,-7.1332157E-3,3.7465417E-3,-3.711152E-4,5.1140757E-3,-1.3229451E-3,-1.5009156E-2,-2.5965904E-3,-1.1691639E-2,1.095316E-2,-1.2741594E-2,9.358414E-3,-5.5632824E-3,1.1898798E-2],"split_indices":[2,2,0,2,0,29,1,18,20,29,25,19,20,20,26,0,0,0,0,0,0,0,0,0,0,0,0,0,0,0,0],"split_type":[0,0,0,0,0,0,0,0,0,0,0,0,0,0,0,0,0,0,0,0,0,0,0,0,0,0,0,0,0,0,0],"sum_hessian":[4.575956E3,3.7720583E3,8.038978E2,8.85255E2,2.8868032E3,5.474301E2,2.5646768E2,7.2691864E1,8.125632E2,2.1767412E3,7.1006195E2,4.6619455E2,8.1235565E1,1.7191418E2,8.4553505E1,6.5995125E1,6.6967344E0,7.4190405E2,7.065911E1,1.8279915E3,3.4874982E2,1.1154726E2,5.985147E2,1.5257312E1,4.5093723E2,7.573627E1,5.499303E0,1.6605663E2,5.8575616E0,7.8305695E1,6.2478075E0],"tree_param":{"num_deleted":"0","num_feature":"35","num_nodes":"31","size_leaf_vector":"1"}},{"base_weights":[5.0533554E-3,3.9219162E-1,-1.9833438E-1,5.439693E-1,2.215872E-1,-5.392106E-2,-3.55902E-1,6.4131397E-1,4.6232763E-1,1.15773454E-1,3.304735E-1,1.8286925E-2,-1.3420229E-1,-2.90718E-1,-4.7783998E-1,2.0260114E-2,7.829947E-3,1.2437148E-2,1.8464906E-2,-6.136756E-3,4.5903716E-3,8.376853E-4,1.0654934E-2,-1.4178234E-2,7.83171E-4,-3.3505382E-3,-9.54422E-3,-7.5268005E-3,-1.17956335E-2,-5.6461766E-3,-1.4672875E-2],"categories":[],"categories_nodes":[],"categories_segments":[],"categories_sizes":[],"default_left":[0,0,0,0,0,0,0,0,0,0,0,0,0,1,0,0,0,0,0,0,0,0,0,0,0,0,0,0,0,0,0],"id":20,"left_children":[1,3,5,7,9,11,13,15,17,19,21,23,25,27,29,-1,-1,-1,-1,-1,-1,-1,-1,-1,-1,-1,-1,-1,-1,-1,-1],"loss_changes":[4.0825357E2,4.6119904E1,7.732765E1,7.208496E0,9.667892E0,1.0290752E1,1.278006E1,5.363968E0,3.5278473E0,5.1461415E0,3.087593E0,3.6020133E0,3.4458227E0,4.2340317E0,1.7487488E0,0E0,0E0,0E0,0E0,0E0,0E0,0E0,0E0,0E0,0E0,0E0,0E0,0E0,0E0,0E0,0E0],"parents":[2147483647,0,0,1,1,2,2,3,3,4,4,5,5,6,6,7,7,8,8,9,9,10,10,11,11,12,12,13,13,14,14],"right_children":[2,4,6,8,10,12,14,16,18,20,22,24,26,28,30,-1,-1,-1,-1,-1,-1,-1,-1,-1,-1,-1,-1,-1,-1,-1,-1],"split_conditions":[-5.0572403E1,-1.2180171E2,5.44552E1,-1.9160513E2,1.4768376E3,2.620095E0,1.5866493E2,5E-1,1.4E0,3.854E2,4.534E2,8.2E0,6.67E-1,1.025E1,1E0,2.0260114E-2,7.829947E-3,1.2437148E-2,1.8464906E-2,-6.136756E-3,4.5903716E-3,8.376853E-4,1.0654934E-2,-1.4178234E-2,7.83171E-4,-3.3505382E-3,-9.54422E-3,-7.5268005E-3,-1.17956335E-2,-5.6461766E-3,-1.4672875E-2],"split_indices":[2,2,2,2,0,2,2,13,14,26,26,20,12,32,3,0,0,0,0,0,0,0,0,0,0,0,0,0,0,0,0],"split_type":[0,0,0,0,0,0,0,0,0,0,0,0,0,0,0,0,0,0,0,0,0,0,0,0,0,0,0,0,0,0,0],"sum_hessian":[5.1828975E3,1.7847632E3,3.3981345E3,9.433376E2,8.414256E2,1.773779E3,1.6243555E3,4.271607E2,5.161768E2,4.2778003E2,4.1364554E2,9.3425073E2,8.3952826E2,1.0607161E3,5.6363947E2,3.9137265E2,3.5788048E1,3.963173E2,1.1985954E2,4.408288E1,3.8369714E2,3.1371069E1,3.8227448E2,1.3715104E1,9.2053564E2,7.493948E2,9.013351E1,7.6633154E2,2.943845E2,2.1747913E1,5.4189154E2],"tree_param":{"num_deleted":"0","num_feature":"35","num_nodes":"31","size_leaf_vector":"1"}},{"base_weights":[6.766886E-3,-2.7879176E-1,2.3924136E-1,-4.2707697E-1,-1.8297404E-1,9.781665E-2,4.7153434E-1,-5.328446E-1,-3.7106067E-1,4.0119186E-2,-2.0345327E-1,4.246893E-2,1.782118E-1,4.2590523E-1,6.014528E-1,-1.653203E-2,-8.873997E-3,-4.5650043E-3,-1.1645002E-2,3.894674E-3,-7.301944E-3,-7.947176E-3,-4.3169037E-3,-6.238138E-3,1.7484757E-3,2.4428011E-3,7.3762783E-3,1.1499395E-2,1.9626005E-2,1.84954E-2,-6.7819684E-4],"categories":[],"categories_nodes":[],"categories_segments":[],"categories_sizes":[],"default_left":[0,0,0,0,0,0,0,0,0,0,0,0,0,1,1,0,0,0,0,0,0,0,0,0,0,0,0,0,0,0,0],"id":21,"left_children":[1,3,5,7,9,11,13,15,17,19,21,23,25,27,29,-1,-1,-1,-1,-1,-1,-1,-1,-1,-1,-1,-1,-1,-1,-1,-1],"loss_changes":[3.9383582E2,3.7749374E1,1.0738786E2,5.9894714E0,7.4052124E0,9.042917E0,7.0785522E0,1.3889923E0,2.5096588E0,3.514881E0,5.3898087E0,4.787466E0,5.4090843E0,8.686249E0,3.0137253E0,0E0,0E0,0E0,0E0,0E0,0E0,0E0,0E0,0E0,0E0,0E0,0E0,0E0,0E0,0E0,0E0],"parents":[2147483647,0,0,1,1,2,2,3,3,4,4,5,5,6,6,7,7,8,8,9,9,10,10,11,11,12,12,13,13,14,14],"right_children":[2,4,6,8,10,12,14,16,18,20,22,24,26,28,30,-1,-1,-1,-1,-1,-1,-1,-1,-1,-1,-1,-1,-1,-1,-1,-1],"split_conditions":[-1.43924885E1,-1.18150734E2,1.0498989E2,-2.098579E2,1.1E1,4.829229E1,2.2436642E2,5E-1,8.2E1,8E0,-5.7232555E1,1.508E0,1.5353396E3,5.5E0,8.4333336E1,-1.653203E-2,-8.873997E-3,-4.5650043E-3,-1.1645002E-2,3.894674E-3,-7.301944E-3,-7.947176E-3,-4.3169037E-3,-6.238138E-3,1.7484757E-3,2.4428011E-3,7.3762783E-3,1.1499395E-2,1.9626005E-2,1.84954E-2,-6.7819684E-4],"split_indices":[2,2,2,2,20,2,2,13,28,9,2,34,0,29,28,0,0,0,0,0,0,0,0,0,0,0,0,0,0,0,0],"split_type":[0,0,0,0,0,0,0,0,0,0,0,0,0,0,0,0,0,0,0,0,0,0,0,0,0,0,0,0,0,0,0],"sum_hessian":[5.9305894E3,2.661344E3,3.2692454E3,1.0433004E3,1.6180435E3,2.0329594E3,1.236286E3,3.5828647E2,6.850139E2,1.359622E2,1.4820813E3,1.2049468E3,8.2801263E2,9.181112E2,3.1817477E2,3.3147903E2,2.6807455E1,5.0369442E1,6.346445E2,1.036956E2,3.22666E1,7.277321E2,7.543492E2,7.0852615E1,1.1340941E3,3.4160004E2,4.864126E2,7.7601276E2,1.4209846E2,3.10689E2,7.4857984E0],"tree_param":{"num_deleted":"0","num_feature":"35","num_nodes":"31","size_leaf_vector":"1"}},{"base_weights":[7.1015093E-3,5.245539E-2,-1.2689109E-1,1.0330486E-1,-6.611283E-2,-2.3221616E-1,-4.4087037E-2,9.66701E-2,5.2918875E-1,-5.391119E-2,-4.7642112E-1,-3.832687E-1,-1.8906675E-1,-2.5270952E-2,-3.4815758E-1,3.145035E-3,-8.378205E-3,9.322173E-3,3.170237E-2,1.7978994E-2,-1.8622713E-3,-1.895909E-2,-6.6819186E-3,-5.2326103E-3,-1.3437607E-2,1.9915719E-2,-6.136098E-3,-1.5021529E-3,4.6703834E-3,1.147124E-3,-1.3169585E-2],"categories":[],"categories_nodes":[],"categories_segments":[],"categories_sizes":[],"default_left":[0,0,0,1,0,0,1,1,0,0,0,0,0,0,0,0,0,0,0,0,0,0,0,0,0,0,0,0,0,0,0],"id":22,"left_children":[1,3,5,7,9,11,13,15,17,19,21,23,25,27,29,-1,-1,-1,-1,-1,-1,-1,-1,-1,-1,-1,-1,-1,-1,-1,-1],"loss_changes":[2.765565E1,2.0505093E1,1.0026657E1,6.6733456E0,5.0861635E0,3.2275314E0,3.6846042E0,7.225479E0,3.8529892E0,5.3314056E0,1.0177984E0,1.4276733E0,5.357972E0,2.7408118E0,1.3342896E0,0E0,0E0,0E0,0E0,0E0,0E0,0E0,0E0,0E0,0E0,0E0,0E0,0E0,0E0,0E0,0E0],"parents":[2147483647,0,0,1,1,2,2,3,3,4,4,5,5,6,6,7,7,8,8,9,9,10,10,11,11,12,12,13,13,14,14],"right_children":[2,4,6,8,10,12,14,16,18,20,22,24,26,28,30,-1,-1,-1,-1,-1,-1,-1,-1,-1,-1,-1,-1,-1,-1,-1,-1],"split_conditions":[1.5886218E3,1.5687628E3,1.25E0,1.725E1,2.2E0,1.4666667E1,8.8E1,5.84E1,2E0,6.67E-1,-5E-1,1.634E0,4.274E2,2.6E0,5E0,3.145035E-3,-8.378205E-3,9.322173E-3,3.170237E-2,1.7978994E-2,-1.8622713E-3,-1.895909E-2,-6.6819186E-3,-5.2326103E-3,-1.3437607E-2,1.9915719E-2,-6.136098E-3,-1.5021529E-3,4.6703834E-3,1.147124E-3,-1.3169585E-2],"split_indices":[0,1,4,20,8,20,27,24,4,4,14,33,26,4,29,0,0,0,0,0,0,0,0,0,0,0,0,0,0,0,0],"split_type":[0,0,0,0,0,0,0,0,0,0,0,0,0,0,0,0,0,0,0,0,0,0,0,0,0,0,0,0,0,0,0],"sum_hessian":[4.548713E3,3.39887E3,1.1498429E3,2.3788145E3,1.0200557E3,5.0530313E2,6.4453973E2,2.343532E3,3.5282475E1,9.9169635E2,2.8359415E1,1.1052109E2,3.9478204E2,6.079994E2,3.6540295E1,2.2944248E3,4.9107094E1,2.6074581E1,9.207893E0,1.1348453E1,9.8034784E2,1.6655874E1,1.1703542E1,2.6999763E1,8.3521324E1,6.286125E0,3.884959E2,5.353486E2,7.265085E1,7.064811E0,2.9475485E1],"tree_param":{"num_deleted":"0","num_feature":"35","num_nodes":"31","size_leaf_vector":"1"}},{"base_weights":[7.5215206E-4,-1.5022337E-1,3.0222246E-1,-1.5593073E-2,-3.825503E-1,4.7658017E-1,-2.5830658E-2,2.2493033E-1,-5.3571105E-2,-2.823788E-1,-4.5676598E-1,3.9144805E-1,6.1778206E-1,-1.78489E-1,2.2261027E-1,-6.2282234E-3,8.496843E-3,-3.7854372E-3,2.0509697E-3,-1.1261203E-2,-5.213763E-3,-1.464604E-2,-1.0846275E-2,1.4522397E-2,6.8198727E-3,4.3919766E-3,1.9529762E-2,-3.327498E-3,-1.178281E-2,8.594986E-3,-9.661572E-3],"categories":[],"categories_nodes":[],"categories_segments":[],"categories_sizes":[],"default_left":[0,0,0,0,0,0,0,0,0,0,0,0,0,0,0,0,0,0,0,0,0,0,0,0,0,0,0,0,0,0,0],"id":23,"left_children":[1,3,5,7,9,11,13,15,17,19,21,23,25,27,29,-1,-1,-1,-1,-1,-1,-1,-1,-1,-1,-1,-1,-1,-1,-1,-1],"loss_changes":[2.3662503E2,1.0834439E2,9.924045E1,2.005531E1,9.319046E0,1.3375336E1,2.2909351E1,7.608658E0,1.6793785E1,5.4227715E0,2.0038605E0,1.0675407E1,6.5478516E0,5.372264E0,8.093942E0,0E0,0E0,0E0,0E0,0E0,0E0,0E0,0E0,0E0,0E0,0E0,0E0,0E0,0E0,0E0,0E0],"parents":[2147483647,0,0,1,1,2,2,3,3,4,4,5,5,6,6,7,7,8,8,9,9,10,10,11,11,12,12,13,13,14,14],"right_children":[2,4,6,8,10,12,14,16,18,20,22,24,26,28,30,-1,-1,-1,-1,-1,-1,-1,-1,-1,-1,-1,-1,-1,-1,-1,-1],"split_conditions":[1.5625582E3,1.544452E3,1.5499082E3,1.4314954E3,1.6051102E3,1.65647E3,1.6601371E3,1.4313273E3,1.4987396E3,1.4851152E3,1.5116365E3,1.4937004E3,5.2E0,1.6930181E3,1.7289888E3,-6.2282234E-3,8.496843E-3,-3.7854372E-3,2.0509697E-3,-1.1261203E-2,-5.213763E-3,-1.464604E-2,-1.0846275E-2,1.4522397E-2,6.8198727E-3,4.3919766E-3,1.9529762E-2,-3.327498E-3,-1.178281E-2,8.594986E-3,-9.661572E-3],"split_indices":[1,0,0,0,0,1,1,1,1,1,1,0,18,0,0,0,0,0,0,0,0,0,0,0,0,0,0,0,0,0,0],"split_type":[0,0,0,0,0,0,0,0,0,0,0,0,0,0,0,0,0,0,0,0,0,0,0,0,0,0,0,0,0,0,0],"sum_hessian":[5.1968804E3,3.4630806E3,1.7337998E3,2.1932114E3,1.2698691E3,1.1318026E3,6.0199713E2,2.9840744E2,1.894804E3,5.424756E2,7.2739355E2,7.084456E2,4.2335706E2,3.7305148E2,2.2894566E2,3.5138428E1,2.63269E2,1.1875903E3,7.072136E2,2.9089417E2,2.5158145E2,5.437596E2,1.8363399E2,4.5160284E2,2.5684277E2,2.8219397E1,3.9513763E2,2.8476572E2,8.828579E1,2.0533386E2,2.36118E1],"tree_param":{"num_deleted":"0","num_feature":"35","num_nodes":"31","size_leaf_vector":"1"}},{"base_weights":[5.4405467E-4,-2.696062E-1,2.1881975E-1,-4.251122E-1,-1.6516536E-1,8.40027E-2,4.535459E-1,-4.935997E-1,-3.4859383E-1,2.0168828E-2,-1.9617781E-1,2.8500907E-2,1.6134404E-1,4.1739166E-1,6.713932E-1,-1.5222455E-2,-4.551693E-3,-1.0725416E-2,7.019169E-3,1.06214415E-2,-1.0105565E-3,-8.674686E-3,-4.6412162E-3,-6.2032165E-3,1.4258804E-3,3.5854217E-3,1.1406657E-2,1.0116008E-2,1.4510403E-2,1.606406E-2,2.224863E-2],"categories":[],"categories_nodes":[],"categories_segments":[],"categories_sizes":[],"default_left":[0,0,0,0,0,0,0,0,1,1,0,0,1,0,0,0,0,0,0,0,0,0,0,0,0,0,0,0,0,0,0],"id":24,"left_children":[1,3,5,7,9,11,13,15,17,19,21,23,25,27,29,-1,-1,-1,-1,-1,-1,-1,-1,-1,-1,-1,-1,-1,-1,-1,-1],"loss_changes":[3.493148E2,4.292604E1,1.0364763E2,5.398712E0,9.1159935E0,8.93429E0,9.132599E0,2.561081E0,2.7103577E0,4.11441E0,5.192253E0,5.442969E0,7.9182663E0,5.299637E0,1.2110214E0,0E0,0E0,0E0,0E0,0E0,0E0,0E0,0E0,0E0,0E0,0E0,0E0,0E0,0E0,0E0,0E0],"parents":[2147483647,0,0,1,1,2,2,3,3,4,4,5,5,6,6,7,7,8,8,9,9,10,10,11,11,12,12,13,13,14,14],"right_children":[2,4,6,8,10,12,14,16,18,20,22,24,26,28,30,-1,-1,-1,-1,-1,-1,-1,-1,-1,-1,-1,-1,-1,-1,-1,-1],"split_conditions":[-1.43924885E1,-1.1604873E2,1.0666596E2,-1.7381485E2,1.22E1,4.829229E1,2.6283826E2,1.5608602E3,1.796E0,1E1,-7.7667755E1,1.8566667E0,4.8E0,1.667E0,7.5E-1,-1.5222455E-2,-4.551693E-3,-1.0725416E-2,7.019169E-3,1.06214415E-2,-1.0105565E-3,-8.674686E-3,-4.6412162E-3,-6.2032165E-3,1.4258804E-3,3.5854217E-3,1.1406657E-2,1.0116008E-2,1.4510403E-2,1.606406E-2,2.224863E-2],"split_indices":[2,2,2,2,20,2,2,0,33,31,2,34,17,5,11,0,0,0,0,0,0,0,0,0,0,0,0,0,0,0,0],"split_type":[0,0,0,0,0,0,0,0,0,0,0,0,0,0,0,0,0,0,0,0,0,0,0,0,0,0,0,0,0,0,0],"sum_hessian":[5.9218784E3,2.6463599E3,3.2755186E3,1.0620148E3,1.584345E3,2.0814036E3,1.1941149E3,5.5753986E2,5.0447495E2,2.2715982E2,1.357185E3,1.212591E3,8.6881274E2,1.0266471E3,1.6746779E2,5.35419E2,2.2120895E1,4.972476E2,7.2273602E0,3.0777039E1,1.9638278E2,4.167796E2,9.4040546E2,8.99948E1,1.1225961E3,7.307117E2,1.3810103E2,4.673568E2,5.592903E2,5.998765E1,1.0748014E2],"tree_param":{"num_deleted":"0","num_feature":"35","num_nodes":"31","size_leaf_vector":"1"}},{"base_weights":[-5.8734803E-3,3.1455327E-2,-2.0704235E-1,-9.768156E-2,6.784215E-2,-1.7819746E-1,-3.50953E-1,4.838727E-1,-1.0583591E-1,3.0610892E-1,6.0092255E-2,-1.9944678E-1,2.0114413E-1,-3.8945243E-1,1.1318264E-2,2.4392563E-3,2.3689855E-2,-2.6445442E-3,-1.0250419E-2,1.6496466E-2,-8.719907E-3,1.4389196E-3,6.4030215E-3,-1.584696E-2,-5.4632258E-3,2.9184287E-2,1.3245492E-4,-1.3056424E-2,-4.03706E-3],"categories":[],"categories_nodes":[],"categories_segments":[],"categories_sizes":[],"default_left":[0,0,1,0,0,1,0,0,1,0,0,0,0,0,0,0,0,0,0,0,0,0,0,0,0,0,0,0,0],"id":25,"left_children":[1,3,5,7,9,11,13,15,17,19,21,23,25,27,-1,-1,-1,-1,-1,-1,-1,-1,-1,-1,-1,-1,-1,-1,-1],"loss_changes":[3.4242775E1,1.8080473E1,2.900137E0,4.062928E0,5.5239134E0,4.8489532E0,3.4590406E0,1.3978777E0,3.4528322E0,1.3879207E1,5.3982496E0,3.127264E0,4.875317E0,1.2559147E0,0E0,0E0,0E0,0E0,0E0,0E0,0E0,0E0,0E0,0E0,0E0,0E0,0E0,0E0,0E0],"parents":[2147483647,0,0,1,1,2,2,3,3,4,4,5,5,6,6,7,7,8,8,9,9,10,10,11,11,12,12,13,13],"right_children":[2,4,6,8,10,12,14,16,18,20,22,24,26,28,-1,-1,-1,-1,-1,-1,-1,-1,-1,-1,-1,-1,-1,-1,-1],"split_conditions":[1.2897742E2,-1.1417878E2,5.4E0,3.72E1,7.08E1,1.3E1,7.2E0,1.05E1,1.7E1,4.528E2,1.5E1,5.2E0,1.59E0,1.52E1,1.1318264E-2,2.4392563E-3,2.3689855E-2,-2.6445442E-3,-1.0250419E-2,1.6496466E-2,-8.719907E-3,1.4389196E-3,6.4030215E-3,-1.584696E-2,-5.4632258E-3,2.9184287E-2,1.3245492E-4,-1.3056424E-2,-4.03706E-3],"split_indices":[2,2,29,23,28,19,30,32,20,25,9,30,33,32,0,0,0,0,0,0,0,0,0,0,0,0,0,0,0],"split_type":[0,0,0,0,0,0,0,0,0,0,0,0,0,0,0,0,0,0,0,0,0,0,0,0,0,0,0,0,0],"sum_hessian":[4.558125E3,3.845415E3,7.127099E2,8.4496136E2,3.0004536E3,5.9557367E2,1.17136215E2,1.0877229E1,8.3408417E2,9.330603E1,2.9071477E3,5.6443054E2,3.1143112E1,1.1169635E2,5.43987E0,5.242068E0,5.635161E0,7.771822E2,5.6901978E1,6.63014E1,2.7004631E1,2.6952825E3,2.1186525E2,2.6799355E1,5.3763116E2,5.525302E0,2.5617811E1,9.4095055E1,1.760129E1],"tree_param":{"num_deleted":"0","num_feature":"35","num_nodes":"29","size_leaf_vector":"1"}},{"base_weights":[1.7726824E-3,3.5357332E-1,-1.8641037E-1,5.417374E-1,2.4097091E-1,-5.2009854E-2,-3.513129E-1,1.0198468E-1,5.594492E-1,1.3110496E-2,2.8732544E-1,2.2922024E-2,-1.2869203E-1,-2.9375172E-1,-4.8102003E-1,9.404261E-3,-1.0587358E-2,1.7579924E-2,9.744194E-3,-1.0604143E-2,2.0783201E-3,1.7210634E-2,7.3603485E-3,-6.043923E-3,1.2405704E-3,-8.207369E-3,-2.716505E-3,-7.5260503E-3,-1.3384892E-2,-1.4706605E-2,3.562623E-4],"categories":[],"categories_nodes":[],"categories_segments":[],"categories_sizes":[],"default_left":[0,0,0,0,0,0,0,0,0,0,0,0,0,1,0,0,0,0,0,0,0,0,0,0,0,0,0,0,0,0,0],"id":26,"left_children":[1,3,5,7,9,11,13,15,17,19,21,23,25,27,29,-1,-1,-1,-1,-1,-1,-1,-1,-1,-1,-1,-1,-1,-1,-1,-1],"loss_changes":[3.4260397E2,3.8081406E1,7.470577E1,5.1957245E0,1.1932709E1,1.0683255E1,1.1160965E1,2.7403226E0,3.846695E0,3.979452E0,1.114769E1,3.899666E0,5.0527563E0,6.7578125E0,2.1087341E0,0E0,0E0,0E0,0E0,0E0,0E0,0E0,0E0,0E0,0E0,0E0,0E0,0E0,0E0,0E0,0E0],"parents":[2147483647,0,0,1,1,2,2,3,3,4,4,5,5,6,6,7,7,8,8,9,9,10,10,11,11,12,12,13,13,14,14],"right_children":[2,4,6,8,10,12,14,16,18,20,22,24,26,28,30,-1,-1,-1,-1,-1,-1,-1,-1,-1,-1,-1,-1,-1,-1,-1,-1],"split_conditions":[-5.0572403E1,-1.5632545E2,5.9778633E1,4.2E0,4.844E2,2.620095E0,1.7292616E2,5.6666665E0,1.5353396E3,3.588E2,4.548E2,6.67E-1,2E-1,4.408E2,1.5766635E3,9.404261E-3,-1.0587358E-2,1.7579924E-2,9.744194E-3,-1.0604143E-2,2.0783201E-3,1.7210634E-2,7.3603485E-3,-6.043923E-3,1.2405704E-3,-8.207369E-3,-2.716505E-3,-7.5260503E-3,-1.3384892E-2,-1.4706605E-2,3.562623E-4],"split_indices":[2,2,2,18,26,2,2,30,0,26,25,7,11,25,1,0,0,0,0,0,0,0,0,0,0,0,0,0,0,0,0],"split_type":[0,0,0,0,0,0,0,0,0,0,0,0,0,0,0,0,0,0,0,0,0,0,0,0,0,0,0,0,0,0,0],"sum_hessian":[5.1730635E3,1.8024943E3,3.3705693E3,6.733997E2,1.1290945E3,1.8577571E3,1.5128123E3,2.6333874E1,6.4706586E2,1.9108415E2,9.380104E2,9.399565E2,9.178006E2,1.050076E3,4.6273618E2,1.8188538E1,8.145334E0,5.7995087E2,6.711498E1,2.4684372E1,1.6639978E2,1.1831058E2,8.1969977E2,7.0591064E1,8.693654E2,1.899766E2,7.27824E2,8.215624E2,2.2851369E2,4.5426254E2,8.473629E0],"tree_param":{"num_deleted":"0","num_feature":"35","num_nodes":"31","size_leaf_vector":"1"}},{"base_weights":[-3.052529E-3,1.302846E-1,-2.1672484E-1,3.7257012E-2,2.8323206E-1,-2.6816973E-1,1.0363998E-1,-2.3726813E-2,2.1193635E-1,2.4242142E-1,5.315475E-1,-1.9514886E-1,-4.213448E-1,-1.12983674E-1,2.4257058E-1,-1.1373237E-3,9.953299E-3,7.727973E-3,6.2783714E-4,5.058004E-3,1.0579629E-2,2.2695584E-2,1.28210755E-2,-7.7261655E-3,9.361459E-5,-1.298694E-2,6.9647953E-3,1.211378E-2,-4.7631273E-3,-5.7449113E-3,8.66604E-3],"categories":[],"categories_nodes":[],"categories_segments":[],"categories_sizes":[],"default_left":[0,0,0,0,1,0,0,0,0,0,0,0,1,0,0,0,0,0,0,0,0,0,0,0,0,0,0,0,0,0,0],"id":27,"left_children":[1,3,5,7,9,11,13,15,17,19,21,23,25,27,29,-1,-1,-1,-1,-1,-1,-1,-1,-1,-1,-1,-1,-1,-1,-1,-1],"loss_changes":[1.6972198E2,5.218115E1,3.7753265E1,2.4314417E1,1.3928307E1,2.1980957E1,9.580865E0,8.546334E0,5.146055E0,9.650101E0,4.2459755E0,1.6547531E1,4.9018097E0,3.0151715E0,3.9483156E0,0E0,0E0,0E0,0E0,0E0,0E0,0E0,0E0,0E0,0E0,0E0,0E0,0E0,0E0,0E0,0E0],"parents":[2147483647,0,0,1,1,2,2,3,3,4,4,5,5,6,6,7,7,8,8,9,9,10,10,11,11,12,12,13,13,14,14],"right_children":[2,4,6,8,10,12,14,16,18,20,22,24,26,28,30,-1,-1,-1,-1,-1,-1,-1,-1,-1,-1,-1,-1,-1,-1,-1,-1],"split_conditions":[1.5392609E3,1.6E0,6E-1,6E-1,5.164E2,1.6601371E3,1.5E0,2.75E0,2E0,6E-1,3.776E2,1.8E0,1.8925E0,5E-1,5E-1,-1.1373237E-3,9.953299E-3,7.727973E-3,6.2783714E-4,5.058004E-3,1.0579629E-2,2.2695584E-2,1.28210755E-2,-7.7261655E-3,9.361459E-5,-1.298694E-2,6.9647953E-3,1.211378E-2,-4.7631273E-3,-5.7449113E-3,8.66604E-3],"split_indices":[1,5,11,11,25,1,5,8,7,11,26,5,33,7,8,0,0,0,0,0,0,0,0,0,0,0,0,0,0,0,0],"split_type":[0,0,0,0,0,0,0,0,0,0,0,0,0,0,0,0,0,0,0,0,0,0,0,0,0,0,0,0,0,0,0],"sum_hessian":[5.9551616E3,3.6671526E3,2.2880093E3,2.2810112E3,1.3861414E3,1.9715726E3,3.164365E2,1.6913822E3,5.8962897E2,1.1921824E3,1.939589E2,1.3366469E3,6.349258E2,1.2371855E2,1.9271793E2,1.6273472E3,6.4034996E1,4.755861E2,1.14042915E2,7.1553143E2,4.7665097E2,5.940741E1,1.3455148E2,1.016487E3,3.2015988E2,6.242277E2,1.0698081E1,9.433112E0,1.1428544E2,1.8271824E1,1.744461E2],"tree_param":{"num_deleted":"0","num_feature":"35","num_nodes":"31","size_leaf_vector":"1"}},{"base_weights":[3.49746E-3,4.0002875E-2,-1.6964762E-1,-6.806269E-2,7.204994E-2,-1.4446247E-1,-4.434009E-1,4.0244436E-1,-8.0356695E-2,5.935913E-2,2.6063877E-1,-9.5918626E-2,-2.4477033E-1,-4.8689923E-1,-1.5788778E-3,2.306353E-2,-1.3151557E-2,-8.284773E-3,-1.6231218E-3,2.0500202E-2,1.7006998E-3,6.3395146E-3,2.2090236E-2,-4.5858957E-3,1.9951079E-4,-7.9156505E-3,1.1877121E-2,-1.6230844E-2,-1.8085395E-3],"categories":[],"categories_nodes":[],"categories_segments":[],"categories_sizes":[],"default_left":[0,0,1,0,1,0,0,1,0,0,1,0,1,0,0,0,0,0,0,0,0,0,0,0,0,0,0,0,0],"id":28,"left_children":[1,3,5,7,9,11,13,15,17,19,21,23,25,27,-1,-1,-1,-1,-1,-1,-1,-1,-1,-1,-1,-1,-1,-1,-1],"loss_changes":[2.880852E1,1.3040607E1,5.407633E0,5.015312E0,6.933921E0,3.522605E0,1.1026773E0,7.1451755E0,4.3047132E0,4.494479E0,4.1328783E0,2.8769732E0,3.0004883E0,1.3438816E0,0E0,0E0,0E0,0E0,0E0,0E0,0E0,0E0,0E0,0E0,0E0,0E0,0E0,0E0,0E0],"parents":[2147483647,0,0,1,1,2,2,3,3,4,4,5,5,6,6,7,7,8,8,9,9,10,10,11,11,12,12,13,13],"right_children":[2,4,6,8,10,12,14,16,18,20,22,24,26,28,-1,-1,-1,-1,-1,-1,-1,-1,-1,-1,-1,-1,-1,-1,-1],"split_conditions":[1.1778863E2,-1.1417878E2,1.0666667E1,3.86E1,9.5E0,1.6973217E3,1.4E1,5.658E2,4.004E2,-2.6E0,1.55E1,1.7639658E2,4.88E2,1.5E0,-1.5788778E-3,2.306353E-2,-1.3151557E-2,-8.284773E-3,-1.6231218E-3,2.0500202E-2,1.7006998E-3,6.3395146E-3,2.2090236E-2,-4.5858957E-3,1.9951079E-4,-7.9156505E-3,1.1877121E-2,-1.6230844E-2,-1.8085395E-3],"split_indices":[2,2,21,23,22,0,9,26,25,13,31,2,26,7,0,0,0,0,0,0,0,0,0,0,0,0,0,0,0],"split_type":[0,0,0,0,0,0,0,0,0,0,0,0,0,0,0,0,0,0,0,0,0,0,0,0,0,0,0,0,0],"sum_hessian":[4.555708E3,3.7630798E3,7.9262805E2,8.604482E2,2.9026318E3,7.272492E2,6.537884E1,2.1102274E1,8.393459E2,2.7208508E3,1.8178091E2,4.9139542E2,2.3585379E2,5.860886E1,6.76998E0,1.4758045E1,6.34423E0,9.810692E1,7.4123895E2,1.0502916E1,2.710348E3,1.6601268E2,1.576824E1,3.156574E2,1.7573799E2,2.2960245E2,6.2513347E0,5.1771854E1,6.8370075E0],"tree_param":{"num_deleted":"0","num_feature":"35","num_nodes":"29","size_leaf_vector":"1"}},{"base_weights":[5.2937134E-3,3.6677355E-1,-1.9014487E-1,5.11755E-1,2.0489298E-1,-5.0575707E-2,-3.507001E-1,4.596832E-1,6.218232E-1,-2.8252399E-2,2.458423E-1,9.572164E-3,-1.16500184E-1,-2.7841267E-1,-4.5403054E-1,2.1835716E-2,1.29530355E-2,1.9187178E-2,-2.5802443E-3,-3.23818E-3,1.1588015E-2,4.462498E-3,9.5949E-3,1.01712905E-2,-1.6013964E-4,-1.2518137E-2,-3.0974739E-3,-6.8517774E-3,-1.2069514E-2,-2.5442415E-3,-1.3792409E-2],"categories":[],"categories_nodes":[],"categories_segments":[],"categories_sizes":[],"default_left":[0,0,0,0,0,0,0,0,0,0,0,0,0,1,0,0,0,0,0,0,0,0,0,0,0,0,0,0,0,0,0],"id":29,"left_children":[1,3,5,7,9,11,13,15,17,19,21,23,25,27,29,-1,-1,-1,-1,-1,-1,-1,-1,-1,-1,-1,-1,-1,-1,-1,-1],"loss_changes":[3.66191E2,4.2586304E1,7.537371E1,5.210129E0,8.227772E0,7.1424603E0,1.1558914E1,4.587616E0,3.8884583E0,4.320648E0,5.2147026E0,4.6327047E0,3.3817406E0,5.628929E0,1.3167725E0,0E0,0E0,0E0,0E0,0E0,0E0,0E0,0E0,0E0,0E0,0E0,0E0,0E0,0E0,0E0,0E0],"parents":[2147483647,0,0,1,1,2,2,3,3,4,4,5,5,6,6,7,7,8,8,9,9,10,10,11,11,12,12,13,13,14,14],"right_children":[2,4,6,8,10,12,14,16,18,20,22,24,26,28,30,-1,-1,-1,-1,-1,-1,-1,-1,-1,-1,-1,-1,-1,-1,-1,-1],"split_conditions":[-5.0572403E1,-1.2180171E2,5.5971443E1,1.4E0,4.544E2,2.620095E0,1.4807257E2,-2.712888E2,1E0,1.2E1,1.4714966E3,7.12E1,9.5E0,4.48E1,6.67E-1,2.1835716E-2,1.29530355E-2,1.9187178E-2,-2.5802443E-3,-3.23818E-3,1.1588015E-2,4.462498E-3,9.5949E-3,1.01712905E-2,-1.6013964E-4,-1.2518137E-2,-3.0974739E-3,-6.8517774E-3,-1.2069514E-2,-2.5442415E-3,-1.3792409E-2],"split_indices":[2,2,2,14,26,2,2,2,15,9,0,27,32,23,5,0,0,0,0,0,0,0,0,0,0,0,0,0,0,0,0],"split_type":[0,0,0,0,0,0,0,0,0,0,0,0,0,0,0,0,0,0,0,0,0,0,0,0,0,0,0,0,0,0,0],"sum_hessian":[5.1813955E3,1.8179921E3,3.3634036E3,9.5791504E2,8.600771E2,1.7999974E3,1.563406E3,6.537916E2,3.0412344E2,1.285405E2,7.3153656E2,9.416834E2,8.58314E2,9.220542E2,6.413518E2,5.9275623E1,5.94516E2,2.9677795E2,7.3454885E0,1.0843469E2,2.01058E1,3.1767258E2,4.13864E2,3.9829464E1,9.0185394E2,3.493239E1,8.2338165E2,6.589002E2,2.6315405E2,1.0019648E1,6.3133215E2],"tree_param":{"num_deleted":"0","num_feature":"35","num_nodes":"31","size_leaf_vector":"1"}},{"base_weights":[-6.564508E-3,-1.6104782E-1,2.4719638E-1,4.441975E-3,-3.3269802E-1,3.1809568E-1,-1.3299409E-1,-2.6394596E-2,1.8584391E-1,-2.499695E-1,-4.5171413E-1,2.5828E-1,5.5240625E-1,-1.5526883E-1,1.8532522E-2,9.112722E-4,-3.3505275E-3,1.2441193E-3,1.19770905E-2,1.1600977E-3,-8.144848E-3,-1.4079864E-2,-5.8193477E-3,1.1661022E-2,5.981792E-3,2.3429373E-2,1.4995462E-2,3.9757466E-5,-6.8304753E-3],"categories":[],"categories_nodes":[],"categories_segments":[],"categories_sizes":[],"default_left":[0,0,0,1,0,0,1,0,0,0,0,0,0,0,0,0,0,0,0,0,0,0,0,0,0,0,0,0,0],"id":30,"left_children":[1,3,5,7,9,11,13,15,17,19,21,23,25,27,-1,-1,-1,-1,-1,-1,-1,-1,-1,-1,-1,-1,-1,-1,-1],"loss_changes":[2.3244113E2,1.0469598E2,6.0522537E1,1.0507068E1,1.7699936E1,2.6365692E1,6.005024E0,7.7773695E0,8.391129E0,6.6555023E0,3.2713776E0,1.150869E1,4.219879E0,3.9008427E0,0E0,0E0,0E0,0E0,0E0,0E0,0E0,0E0,0E0,0E0,0E0,0E0,0E0,0E0,0E0],"parents":[2147483647,0,0,1,1,2,2,3,3,4,4,5,5,6,6,7,7,8,8,9,9,10,10,11,11,12,12,13,13],"right_children":[2,4,6,8,10,12,14,16,18,20,22,24,26,28,-1,-1,-1,-1,-1,-1,-1,-1,-1,-1,-1,-1,-1,-1,-1],"split_conditions":[1.544452E3,1.5124839E3,1.6342347E3,1.24E1,1.6106178E3,1.6973217E3,6.05E2,1.667E0,1.75E0,1.1E1,1.5321284E3,1.4668694E3,1.4487876E3,1.668462E3,1.8532522E-2,9.112722E-4,-3.3505275E-3,1.2441193E-3,1.19770905E-2,1.1600977E-3,-8.144848E-3,-1.4079864E-2,-5.8193477E-3,1.1661022E-2,5.981792E-3,2.3429373E-2,1.4995462E-2,3.9757466E-5,-6.8304753E-3],"split_indices":[0,1,1,19,1,0,25,7,8,20,0,1,1,1,0,0,0,0,0,0,0,0,0,0,0,0,0,0,0],"split_type":[0,0,0,0,0,0,0,0,0,0,0,0,0,0,0,0,0,0,0,0,0,0,0,0,0,0,0,0,0],"sum_hessian":[5.9273296E3,3.6846013E3,2.242728E3,1.8764602E3,1.8081412E3,1.8903687E3,3.523595E2,1.6045558E3,2.7190445E2,1.0685139E3,7.396273E2,1.5076041E3,3.8276453E2,3.429765E2,9.382998E0,9.6372614E2,6.4082965E2,1.6289212E2,1.0901232E2,7.409963E1,9.9441425E2,6.915435E2,4.8083763E1,4.672201E2,1.040384E3,6.8967E1,3.1379752E2,1.08761734E2,2.3421475E2],"tree_param":{"num_deleted":"0","num_feature":"35","num_nodes":"29","size_leaf_vector":"1"}},{"base_weights":[-3.730094E-3,3.3495568E-2,-1.8314004E-1,7.4884705E-2,-4.3393895E-2,-1.6583495E-1,-3.8051262E-1,6.683491E-2,4.2474756E-1,9.7452044E-2,-7.282063E-2,-1.7612745E-1,1.5240821E-1,-4.2620558E-1,3.5035815E-3,2.125535E-3,-1.1851372E-2,2.2057628E-2,6.171278E-3,2.07404E-2,2.2206872E-3,5.4269647E-3,-2.6465852E-3,-4.757146E-3,-1.1062508E-2,-7.741014E-3,2.237406E-2,-5.268159E-3,-1.5930122E-2],"categories":[],"categories_nodes":[],"categories_segments":[],"categories_sizes":[],"default_left":[0,0,1,1,0,1,1,1,0,0,0,1,1,0,0,0,0,0,0,0,0,0,0,0,0,0,0,0,0],"id":31,"left_children":[1,3,5,7,9,11,13,15,17,19,21,23,25,27,-1,-1,-1,-1,-1,-1,-1,-1,-1,-1,-1,-1,-1,-1,-1],"loss_changes":[3.0468334E1,1.2026983E1,2.6144066E0,6.8898306E0,5.4893713E0,2.3934002E0,1.4681206E0,4.48452E0,3.593649E0,3.1355803E0,4.293E0,2.3098087E0,5.8357882E0,1.4137316E0,0E0,0E0,0E0,0E0,0E0,0E0,0E0,0E0,0E0,0E0,0E0,0E0,0E0,0E0,0E0],"parents":[2147483647,0,0,1,1,2,2,3,3,4,4,5,5,6,6,7,7,8,8,9,9,10,10,11,11,12,12,13,13],"right_children":[2,4,6,8,10,12,14,16,18,20,22,24,26,28,-1,-1,-1,-1,-1,-1,-1,-1,-1,-1,-1,-1,-1,-1,-1],"split_conditions":[1.1778863E2,1.5715431E3,1.625E1,1.6666666E1,3.3E-1,8.78E1,1.58E1,8.76E1,8.12E1,4.32E1,4.61E2,4.7E1,1.054E0,9.666667E0,3.5035815E-3,2.125535E-3,-1.1851372E-2,2.2057628E-2,6.171278E-3,2.07404E-2,2.2206872E-3,5.4269647E-3,-2.6465852E-3,-4.757146E-3,-1.1062508E-2,-7.741014E-3,2.237406E-2,-5.268159E-3,-1.5930122E-2],"split_indices":[2,1,19,20,12,27,20,27,28,23,26,24,33,31,0,0,0,0,0,0,0,0,0,0,0,0,0,0,0],"split_type":[0,0,0,0,0,0,0,0,0,0,0,0,0,0,0,0,0,0,0,0,0,0,0,0,0,0,0,0,0],"sum_hessian":[4.560129E3,3.777211E3,7.829179E2,2.4554714E3,1.3217395E3,7.214991E2,6.141881E1,2.4014097E3,5.4061615E1,2.2802518E2,1.0937144E3,6.9932825E2,2.2170843E1,5.6381325E1,5.037489E0,2.3815479E3,1.9861946E1,2.1386942E1,3.2674675E1,7.572225E0,2.2045296E2,6.196704E1,1.0317473E3,6.425853E2,5.6742916E1,1.3439848E1,8.730994E0,1.741447E1,3.8966854E1],"tree_param":{"num_deleted":"0","num_feature":"35","num_nodes":"29","size_leaf_vector":"1"}},{"base_weights":[2.619213E-3,1.3478602E-1,-2.2723176E-1,4.915559E-2,3.9463452E-1,-2.9174766E-1,5.3046424E-2,-7.511593E-2,1.2671894E-1,-4.5477506E-2,4.560226E-1,-1.9719084E-1,-3.6010176E-1,2.98632E-1,-1.2757032E-1,5.5636023E-3,-3.4554168E-3,5.696266E-3,5.92322E-4,1.4829648E-2,-4.374012E-3,1.0105449E-2,1.7808069E-2,-3.8292685E-3,-1.1662115E-2,-1.2498208E-2,-7.6684873E-3,-1.3484333E-2,9.898422E-3,-4.915972E-4,-1.2560929E-2],"categories":[],"categories_nodes":[],"categories_segments":[],"categories_sizes":[],"default_left":[0,0,0,0,0,0,0,0,0,0,0,1,0,0,0,0,0,0,0,0,0,0,0,0,0,0,0,0,0,0,0],"id":32,"left_children":[1,3,5,7,9,11,13,15,17,19,21,23,25,27,29,-1,-1,-1,-1,-1,-1,-1,-1,-1,-1,-1,-1,-1,-1,-1,-1],"loss_changes":[1.5674745E2,7.2875114E1,3.4078354E1,2.3771057E1,2.1955063E1,9.827194E0,1.5710454E1,9.917801E0,1.0253452E1,5.5030494E0,1.1483246E1,8.539846E0,5.134262E0,3.6631508E0,6.605811E0,0E0,0E0,0E0,0E0,0E0,0E0,0E0,0E0,0E0,0E0,0E0,0E0,0E0,0E0,0E0,0E0],"parents":[2147483647,0,0,1,1,2,2,3,3,4,4,5,5,6,6,7,7,8,8,9,9,10,10,11,11,12,12,13,13,14,14],"right_children":[2,4,6,8,10,12,14,16,18,20,22,24,26,28,30,-1,-1,-1,-1,-1,-1,-1,-1,-1,-1,-1,-1,-1,-1,-1,-1],"split_conditions":[1.5425326E3,6.67E-1,1E0,-4E-1,4.702E2,1.6035399E3,3.3E-1,1.4272515E3,1.4910621E3,2.5E0,1.4E0,4E0,2E-1,8.24E1,1.6930181E3,5.5636023E-3,-3.4554168E-3,5.696266E-3,5.92322E-4,1.4829648E-2,-4.374012E-3,1.0105449E-2,1.7808069E-2,-3.8292685E-3,-1.1662115E-2,-1.2498208E-2,-7.6684873E-3,-1.3484333E-2,9.898422E-3,-4.915972E-4,-1.2560929E-2],"split_indices":[0,14,14,14,26,0,11,0,0,17,14,17,14,28,0,0,0,0,0,0,0,0,0,0,0,0,0,0,0,0,0],"split_type":[0,0,0,0,0,0,0,0,0,0,0,0,0,0,0,0,0,0,0,0,0,0,0,0,0,0,0,0,0,0,0],"sum_hessian":[5.1577783E3,3.2750198E3,1.8827585E3,2.4641675E3,8.108523E2,1.5304342E3,3.5232428E2,9.4696985E2,1.5171976E3,9.9287254E1,7.11565E2,6.4376904E2,8.8666516E2,1.490317E2,2.032926E2,1.25716354E2,8.212535E2,9.534927E2,5.63705E2,1.4945254E1,8.4342E1,3.831346E2,3.284304E2,4.7350903E2,1.7026E2,5.73521E2,3.1314417E2,5.451231E0,1.4358046E2,1.4787451E2,5.5418102E1],"tree_param":{"num_deleted":"0","num_feature":"35","num_nodes":"31","size_leaf_vector":"1"}},{"base_weights":[2.685354E-4,-1.6929907E-1,3.1969154E-1,-3.5562328E-1,-4.8760183E-2,1.6564757E-1,4.3273062E-1,-4.5705047E-1,-2.788428E-1,-1.2169545E-1,1.9792594E-2,1.1757092E-1,4.217068E-1,3.859907E-1,5.7225823E-1,-1.4264268E-2,-1.6295466E-3,-9.109155E-3,-2.2873479E-4,8.996976E-3,-4.105695E-3,1.0603613E-3,-8.3857365E-3,1.0424269E-3,5.7063503E-3,1.5849339E-2,4.319858E-3,1.0407971E-2,1.8156065E-2,1.544085E-2,2.117673E-2],"categories":[],"categories_nodes":[],"categories_segments":[],"categories_sizes":[],"default_left":[0,0,0,0,0,1,0,0,1,0,0,0,0,1,0,0,0,0,0,0,0,0,0,0,0,0,0,0,0,0,0],"id":33,"left_children":[1,3,5,7,9,11,13,15,17,19,21,23,25,27,29,-1,-1,-1,-1,-1,-1,-1,-1,-1,-1,-1,-1,-1,-1,-1,-1],"loss_changes":[3.2001474E2,8.666351E1,3.560434E1,1.1677643E1,1.172514E1,1.0645168E1,7.48143E0,4.8089294E0,5.8170547E0,7.302925E0,5.640195E0,4.402233E0,3.9781513E0,7.3911896E0,1.9004669E0,0E0,0E0,0E0,0E0,0E0,0E0,0E0,0E0,0E0,0E0,0E0,0E0,0E0,0E0,0E0,0E0],"parents":[2147483647,0,0,1,1,2,2,3,3,4,4,5,5,6,6,7,7,8,8,9,9,10,10,11,11,12,12,13,13,14,14],"right_children":[2,4,6,8,10,12,14,16,18,20,22,24,26,28,30,-1,-1,-1,-1,-1,-1,-1,-1,-1,-1,-1,-1,-1,-1,-1,-1],"split_conditions":[4.829229E1,-7.7667755E1,1.0666596E2,-1.6195871E2,-1.43924885E1,4.8E0,2.2436642E2,1.5608602E3,4.5E0,5.25E0,2.5E0,1.544452E3,5.18E1,5.6E0,1E0,-1.4264268E-2,-1.6295466E-3,-9.109155E-3,-2.2873479E-4,8.996976E-3,-4.105695E-3,1.0603613E-3,-8.3857365E-3,1.0424269E-3,5.7063503E-3,1.5849339E-2,4.319858E-3,1.0407971E-2,1.8156065E-2,1.544085E-2,2.117673E-2],"split_indices":[2,2,2,2,2,17,2,0,17,22,7,0,24,29,11,0,0,0,0,0,0,0,0,0,0,0,0,0,0,0,0],"split_type":[0,0,0,0,0,0,0,0,0,0,0,0,0,0,0,0,0,0,0,0,0,0,0,0,0,0,0,0,0,0,0],"sum_hessian":[5.906279E3,3.8584617E3,2.0478171E3,1.514876E3,2.3435857E3,8.6775256E2,1.1800646E3,6.505481E2,8.643279E2,1.1351217E3,1.2084639E3,7.3181006E2,1.3594252E2,8.867736E2,2.9329095E2,6.219146E2,2.8633442E1,7.918177E2,7.251022E1,3.875141E1,1.0963704E3,1.149611E3,5.8852882E1,3.4262973E2,3.8918033E2,9.758167E1,3.836085E1,7.5485834E2,1.319153E2,2.08381E2,8.490996E1],"tree_param":{"num_deleted":"0","num_feature":"35","num_nodes":"31","size_leaf_vector":"1"}},{"base_weights":[6.302805E-3,4.6549812E-2,-1.1469514E-1,8.867822E-2,-5.0762355E-2,-9.047399E-2,-3.3153912E-1,8.1235364E-2,5.4341257E-1,1.2286255E-1,-7.825474E-2,-7.814082E-2,-3.8745233E-1,-2.6606116E-1,-1.8292712E-2,3.2151467E-3,-1.1692008E-3,-7.680838E-3,2.0478709E-2,2.7535376E-3,2.1010766E-2,1.1902023E-2,-2.7090618E-3,-3.539848E-3,1.5253047E-4,-1.8970917E-3,-1.3554287E-2,-1.803579E-2,-6.1356626E-3],"categories":[],"categories_nodes":[],"categories_segments":[],"categories_sizes":[],"default_left":[0,0,0,1,0,1,1,1,0,1,0,0,0,0,0,0,0,0,0,0,0,0,0,0,0,0,0,0,0],"id":34,"left_children":[1,3,5,7,9,11,13,15,17,19,21,23,25,27,-1,-1,-1,-1,-1,-1,-1,-1,-1,-1,-1,-1,-1,-1,-1],"loss_changes":[2.2103355E1,1.3967106E1,5.920348E0,8.001593E0,4.9243813E0,3.7073708E0,1.9046049E0,7.30007E0,4.415699E0,2.4687588E0,5.125777E0,3.2545433E0,8.151612E-1,1.8077326E0,0E0,0E0,0E0,0E0,0E0,0E0,0E0,0E0,0E0,0E0,0E0,0E0,0E0,0E0,0E0],"parents":[2147483647,0,0,1,1,2,2,3,3,4,4,5,5,6,6,7,7,8,8,9,9,10,10,11,11,12,12,13,13],"right_children":[2,4,6,8,10,12,14,16,18,20,22,24,26,28,-1,-1,-1,-1,-1,-1,-1,-1,-1,-1,-1,-1,-1,-1,-1],"split_conditions":[1.5886218E3,1.5687628E3,2.6283826E2,1.725E1,1E0,6.5E2,2.25E0,4.6666665E0,-8.743324E1,5.008E2,3.88E1,1.667E0,1.6117628E3,2.697923E2,-1.8292712E-2,3.2151467E-3,-1.1692008E-3,-7.680838E-3,2.0478709E-2,2.7535376E-3,2.1010766E-2,1.1902023E-2,-2.7090618E-3,-3.539848E-3,1.5253047E-4,-1.8970917E-3,-1.3554287E-2,-1.803579E-2,-6.1356626E-3],"split_indices":[0,1,2,20,7,25,18,29,2,25,23,6,0,2,0,0,0,0,0,0,0,0,0,0,0,0,0,0,0],"split_type":[0,0,0,0,0,0,0,0,0,0,0,0,0,0,0,0,0,0,0,0,0,0,0,0,0,0,0,0,0],"sum_hessian":[4.5367617E3,3.40484E3,1.1319215E3,2.3762166E3,1.0286235E3,1.0194659E3,1.124556E2,2.3391099E3,3.7106674E1,1.4013684E2,8.884867E2,9.800295E2,3.94364E1,9.2615135E1,1.984046E1,1.9240797E3,4.150302E2,5.3788233E0,3.172785E1,1.3408025E2,6.056592E0,2.118776E1,8.6729895E2,6.624051E2,3.1762442E2,6.8599997E0,3.25764E1,1.3007745E1,7.960739E1],"tree_param":{"num_deleted":"0","num_feature":"35","num_nodes":"29","size_leaf_vector":"1"}},{"base_weights":[1.02321645E-2,1.4063948E-1,-2.2016257E-1,6.0847975E-2,3.7702522E-1,-2.976077E-1,1.3350768E-2,-3.8755137E-2,1.5734987E-1,-3.6186725E-2,4.3012783E-1,-2.4990816E-1,-4.007088E-1,-1.1749939E-1,3.1998146E-1,1.3428845E-2,-2.2001036E-3,-1.8402946E-4,6.5176915E-3,-3.1364758E-3,1.503274E-2,4.228451E-3,1.421649E-2,-9.31563E-3,-4.6136943E-3,-1.2348583E-2,6.0296073E-3,-9.32568E-4,-1.1070192E-2,7.300665E-3,2.3746377E-2],"categories":[],"categories_nodes":[],"categories_segments":[],"categories_sizes":[],"default_left":[0,0,0,0,0,0,0,0,0,0,0,0,1,0,0,0,0,0,0,0,0,0,0,0,0,0,0,0,0,0,0],"id":35,"left_children":[1,3,5,7,9,11,13,15,17,19,21,23,25,27,29,-1,-1,-1,-1,-1,-1,-1,-1,-1,-1,-1,-1,-1,-1,-1,-1],"loss_changes":[1.5648541E2,6.2706963E1,3.4048088E1,2.3917461E1,1.842804E1,6.8522873E0,1.888726E1,2.063683E1,1.2377821E1,3.5960243E0,9.34256E0,5.5987816E0,3.0074692E0,7.160971E0,4.8945293E0,0E0,0E0,0E0,0E0,0E0,0E0,0E0,0E0,0E0,0E0,0E0,0E0,0E0,0E0,0E0,0E0],"parents":[2147483647,0,0,1,1,2,2,3,3,4,4,5,5,6,6,7,7,8,8,9,9,10,10,11,11,12,12,13,13,14,14],"right_children":[2,4,6,8,10,12,14,16,18,20,22,24,26,28,30,-1,-1,-1,-1,-1,-1,-1,-1,-1,-1,-1,-1,-1,-1,-1,-1],"split_conditions":[1.5425326E3,6.67E-1,8E-1,-2E-1,8.1E1,1.6560908E3,6E-1,1.4090042E3,3.3E-1,8.22E1,3.3E-1,3.33E-1,8.64E1,1.6930181E3,1.2E1,1.3428845E-2,-2.2001036E-3,-1.8402946E-4,6.5176915E-3,-3.1364758E-3,1.503274E-2,4.228451E-3,1.421649E-2,-9.31563E-3,-4.6136943E-3,-1.2348583E-2,6.0296073E-3,-9.32568E-4,-1.1070192E-2,7.300665E-3,2.3746377E-2],"split_indices":[0,14,14,14,28,0,12,0,12,27,12,12,28,0,10,0,0,0,0,0,0,0,0,0,0,0,0,0,0,0,0],"split_type":[0,0,0,0,0,0,0,0,0,0,0,0,0,0,0,0,0,0,0,0,0,0,0,0,0,0,0,0,0,0,0],"sum_hessian":[5.2063096E3,3.324804E3,1.8815057E3,2.4866858E3,8.3811816E2,1.4127051E3,4.6880075E2,1.2239751E3,1.2627107E3,9.547886E1,7.426393E2,9.681951E2,4.445099E2,3.2901514E2,1.397856E2,8.04546E1,1.1435205E3,3.3886087E2,9.238499E2,8.541605E1,1.0062805E1,9.815441E1,6.4448486E2,5.9239575E2,3.757994E2,4.3690332E2,7.606562E0,2.45715E2,8.330015E1,1.2155054E2,1.8235058E1],"tree_param":{"num_deleted":"0","num_feature":"35","num_nodes":"31","size_leaf_vector":"1"}},{"base_weights":[-4.4897953E-3,9.352115E-2,-1.9130395E-1,9.380186E-3,2.7033103E-1,-6.1814263E-2,-2.923556E-1,1.696432E-1,-5.0204247E-2,2.9351032E-1,-1.3234583E-1,-2.7143374E-1,-2.7960318E-3,-1.3027727E-2,-3.2968405E-1,3.7772278E-3,1.0578734E-2,-3.2336249E-3,2.1306945E-3,6.7717894E-3,1.2802831E-2,-6.4782626E-3,1.7906822E-2,8.647013E-3,-9.351043E-3,-1.4365315E-3,6.266969E-3,-3.352807E-3,6.057247E-3,-1.03316065E-2,2.9156082E-3],"categories":[],"categories_nodes":[],"categories_segments":[],"categories_sizes":[],"default_left":[0,0,0,0,0,0,0,0,0,0,1,0,1,0,0,0,0,0,0,0,0,0,0,0,0,0,0,0,0,0,0],"id":36,"left_children":[1,3,5,7,9,11,13,15,17,19,21,23,25,27,29,-1,-1,-1,-1,-1,-1,-1,-1,-1,-1,-1,-1,-1,-1,-1,-1],"loss_changes":[1.0831961E2,5.772349E1,2.6619576E1,2.512407E1,1.1716362E1,1.1053929E1,1.19151535E1,5.6620903E0,1.3397026E1,1.0591728E1,4.3222523E0,4.5138073E0,6.674958E0,2.9043775E0,6.362068E0,0E0,0E0,0E0,0E0,0E0,0E0,0E0,0E0,0E0,0E0,0E0,0E0,0E0,0E0,0E0,0E0],"parents":[2147483647,0,0,1,1,2,2,3,3,4,4,5,5,6,6,7,7,8,8,9,9,10,10,11,11,12,12,13,13,14,14],"right_children":[2,4,6,8,10,12,14,16,18,20,22,24,26,28,30,-1,-1,-1,-1,-1,-1,-1,-1,-1,-1,-1,-1,-1,-1,-1,-1],"split_conditions":[5E-1,1.667E0,2E-1,-6.67E-1,1.5E0,6.67E-1,8.12E1,7.5E-1,6E-1,6.67E-1,1.28E1,-1.75E0,7.875E1,8E0,2.6E0,3.7772278E-3,1.0578734E-2,-3.2336249E-3,2.1306945E-3,6.7717894E-3,1.2802831E-2,-6.4782626E-3,1.7906822E-2,8.647013E-3,-9.351043E-3,-1.4365315E-3,6.266969E-3,-3.352807E-3,6.057247E-3,-1.03316065E-2,2.9156082E-3],"split_indices":[12,5,14,14,14,3,28,11,11,11,32,14,27,21,5,0,0,0,0,0,0,0,0,0,0,0,0,0,0,0,0],"split_type":[0,0,0,0,0,0,0,0,0,0,0,0,0,0,0,0,0,0,0,0,0,0,0,0,0,0,0,0,0,0,0],"sum_hessian":[5.9139487E3,3.879232E3,2.0347167E3,2.6291262E3,1.2501057E3,8.925702E2,1.1421465E3,7.120617E2,1.9170646E3,1.182319E3,6.778672E1,1.9530206E2,6.972681E2,1.3479897E2,1.0073476E3,5.760614E2,1.3600026E2,1.2997783E3,6.172863E2,7.8545557E2,3.968634E2,6.144667E1,6.340046E0,1.2695366E1,1.8260669E2,5.754734E2,1.2179474E2,9.2697624E1,4.2101337E1,9.7399335E2,3.3354237E1],"tree_param":{"num_deleted":"0","num_feature":"35","num_nodes":"31","size_leaf_vector":"1"}},{"base_weights":[-1.0494768E-3,3.0821266E-2,-1.8075141E-1,-7.197968E-2,6.0570937E-2,-1.1676778E-1,-2.9118976E-1,5.074519E-1,-8.0275275E-2,7.893213E-2,-5.784941E-2,-7.227333E-2,-3.44097E-1,-3.1585732E-1,2.1975435E-1,2.7611217E-2,3.008814E-3,-1.426449E-3,-7.1473606E-3,2.0959673E-3,7.4913735E-3,-2.7068877E-3,5.6559048E-3,-2.9933176E-3,8.769047E-3,7.612293E-3,-1.2537677E-2,-7.480462E-4,-1.051151E-2,-7.887718E-3,2.0866903E-2],"categories":[],"categories_nodes":[],"categories_segments":[],"categories_sizes":[],"default_left":[0,0,0,0,0,1,0,1,1,1,0,1,0,0,0,0,0,0,0,0,0,0,0,0,0,0,0,0,0,0,0],"id":37,"left_children":[1,3,5,7,9,11,13,15,17,19,21,23,25,27,29,-1,-1,-1,-1,-1,-1,-1,-1,-1,-1,-1,-1,-1,-1,-1,-1],"loss_changes":[2.6160532E1,1.1869618E1,4.828083E0,4.228438E0,6.5482016E0,4.398717E0,3.2422466E0,1.9980774E0,4.43365E0,4.0175304E0,3.2445312E0,3.7092977E0,3.253849E0,2.407507E0,2.9809673E0,0E0,0E0,0E0,0E0,0E0,0E0,0E0,0E0,0E0,0E0,0E0,0E0,0E0,0E0,0E0,0E0],"parents":[2147483647,0,0,1,1,2,2,3,3,4,4,5,5,6,6,7,7,8,8,9,9,10,10,11,11,12,12,13,13,14,14],"right_children":[2,4,6,8,10,12,14,16,18,20,22,24,26,28,30,-1,-1,-1,-1,-1,-1,-1,-1,-1,-1,-1,-1,-1,-1,-1,-1],"split_conditions":[1.2897742E2,-1.1193964E2,1.6973217E3,3.72E1,1.5998428E3,5.4E0,1.4E0,5.62E1,8.75E0,8.38E1,2.6E0,8.32E1,-1.5E0,1.0666667E1,2.333E0,2.7611217E-2,3.008814E-3,-1.426449E-3,-7.1473606E-3,2.0959673E-3,7.4913735E-3,-2.7068877E-3,5.6559048E-3,-2.9933176E-3,8.769047E-3,7.612293E-3,-1.2537677E-2,-7.480462E-4,-1.051151E-2,-7.887718E-3,2.0866903E-2],"split_indices":[2,2,0,23,0,29,14,24,22,27,4,27,14,21,3,0,0,0,0,0,0,0,0,0,0,0,0,0,0,0,0],"split_type":[0,0,0,0,0,0,0,0,0,0,0,0,0,0,0,0,0,0,0,0,0,0,0,0,0,0,0,0,0,0,0],"sum_hessian":[4.56577E3,3.8786985E3,6.870717E2,8.702168E2,3.0084817E3,4.363342E2,2.5073752E2,1.1433552E1,8.5878326E2,2.6049197E3,4.0356195E2,3.6601346E2,7.0320755E1,2.3955406E2,1.1183463E1,5.050783E0,6.382768E0,7.1247864E2,1.4630461E2,2.474937E3,1.2998277E2,3.5724518E2,4.6316795E1,3.4101337E2,2.5000093E1,7.461377E0,6.2859383E1,2.559663E1,2.1395743E2,5.773762E0,5.4097004E0],"tree_param":{"num_deleted":"0","num_feature":"35","num_nodes":"31","size_leaf_vector":"1"}},{"base_weights":[-4.3092184E-3,3.4377673E-1,-1.8627791E-1,4.5560142E-1,1.8429752E-1,-6.485095E-2,-3.5179123E-1,5.6079614E-1,3.9236256E-1,4.335945E-3,2.3358807E-1,6.320661E-3,-1.4109688E-1,-2.8996655E-1,-4.4957665E-1,1.225352E-2,1.9879404E-2,1.11744115E-2,2.2463363E-2,1.5772874E-2,-1.1903344E-3,1.5888672E-2,5.854297E-3,3.8625316E-3,-8.529295E-4,-5.145351E-3,2.2525273E-3,-7.6568634E-3,-1.3334462E-2,-1.3641451E-2,2.6769587E-3],"categories":[],"categories_nodes":[],"categories_segments":[],"categories_sizes":[],"default_left":[0,0,0,0,0,0,0,0,1,0,0,0,0,1,1,0,0,0,0,0,0,0,0,0,0,0,0,0,0,0,0],"id":38,"left_children":[1,3,5,7,9,11,13,15,17,19,21,23,25,27,29,-1,-1,-1,-1,-1,-1,-1,-1,-1,-1,-1,-1,-1,-1,-1,-1],"loss_changes":[3.2742624E2,3.1564255E1,6.8201996E1,6.715042E0,6.502205E0,1.0633284E1,8.552963E0,5.766449E0,4.3584976E0,3.661814E0,6.4462852E0,4.319344E0,6.2328434E0,4.6248856E0,1.5758667E0,0E0,0E0,0E0,0E0,0E0,0E0,0E0,0E0,0E0,0E0,0E0,0E0,0E0,0E0,0E0,0E0],"parents":[2147483647,0,0,1,1,2,2,3,3,4,4,5,5,6,6,7,7,8,8,9,9,10,10,11,11,12,12,13,13,14,14],"right_children":[2,4,6,8,10,12,14,16,18,20,22,24,26,28,30,-1,-1,-1,-1,-1,-1,-1,-1,-1,-1,-1,-1,-1,-1,-1,-1],"split_conditions":[-5.439219E1,-1.1604873E2,6.429246E1,-2.0524547E2,5.56E1,3.7508802E0,1.5866493E2,2.2E0,1.16E1,1.4746512E3,1.4E1,4.2E0,2E0,4.656E2,5.98E1,1.225352E-2,1.9879404E-2,1.11744115E-2,2.2463363E-2,1.5772874E-2,-1.1903344E-3,1.5888672E-2,5.854297E-3,3.8625316E-3,-8.529295E-4,-5.145351E-3,2.2525273E-3,-7.6568634E-3,-1.3334462E-2,-1.3641451E-2,2.6769587E-3],"split_indices":[2,2,2,2,24,2,2,4,22,1,19,17,6,25,24,0,0,0,0,0,0,0,0,0,0,0,0,0,0,0,0],"split_type":[0,0,0,0,0,0,0,0,0,0,0,0,0,0,0,0,0,0,0,0,0,0,0,0,0,0,0,0,0,0,0],"sum_hessian":[5.1672725E3,1.7736284E3,3.393644E3,1.0414917E3,7.321367E2,1.9583297E3,1.4353143E3,3.88077E2,6.534147E2,1.5764761E2,5.7448914E2,1.01334344E3,9.449863E2,8.8177716E2,5.535372E2,1.5750127E2,2.3057574E2,6.208277E2,3.258695E1,1.1419271E1,1.4622833E2,6.4562935E1,5.099262E2,2.2344379E2,7.8989966E2,8.286141E2,1.1637226E2,7.220905E2,1.5968661E2,5.4846277E2,5.0743785E0],"tree_param":{"num_deleted":"0","num_feature":"35","num_nodes":"31","size_leaf_vector":"1"}},{"base_weights":[-1.924056E-3,-1.2485769E-1,2.6071203E-1,1.7684191E-2,-3.0369723E-1,3.1862593E-1,-2.040155E-1,-1.3263433E-2,2.0726962E-1,-2.4368341E-1,-4.569167E-1,1.6554044E-1,3.7572265E-1,-2.4824385E-1,2.2364658E-1,1.5187595E-3,-3.4489671E-3,1.0959109E-2,1.8091062E-3,-7.982915E-3,-5.1619945E-4,-9.526901E-3,-1.4693134E-2,8.046484E-3,-1.9192696E-3,1.2713035E-2,5.5837E-3,-2.9634305E-3,-1.0346269E-2,1.9169455E-2,-1.2245339E-3],"categories":[],"categories_nodes":[],"categories_segments":[],"categories_sizes":[],"default_left":[0,0,0,1,0,0,1,0,0,0,0,0,0,0,0,0,0,0,0,0,0,0,0,0,0,0,0,0,0,0,0],"id":39,"left_children":[1,3,5,7,9,11,13,15,17,19,21,23,25,27,29,-1,-1,-1,-1,-1,-1,-1,-1,-1,-1,-1,-1,-1,-1,-1,-1],"loss_changes":[1.8916245E2,1.0173935E2,5.0340836E1,1.3038016E1,1.6165146E1,1.4459579E1,3.9822912E0,1.2421974E1,7.220544E0,6.462738E0,2.1201172E0,1.0695103E1,1.0936951E1,2.690137E0,2.2211375E0,0E0,0E0,0E0,0E0,0E0,0E0,0E0,0E0,0E0,0E0,0E0,0E0,0E0,0E0,0E0,0E0],"parents":[2147483647,0,0,1,1,2,2,3,3,4,4,5,5,6,6,7,7,8,8,9,9,10,10,11,11,12,12,13,13,14,14],"right_children":[2,4,6,8,10,12,14,16,18,20,22,24,26,28,30,-1,-1,-1,-1,-1,-1,-1,-1,-1,-1,-1,-1,-1,-1,-1,-1],"split_conditions":[1.5667357E3,1.5223942E3,1.6601371E3,1.25E1,1.6508545E3,1.6019197E3,1.678E0,1.667E0,1.4746512E3,1.5425326E3,1.5E0,1.5282686E3,1.574723E3,1E0,9.2E0,1.5187595E-3,-3.4489671E-3,1.0959109E-2,1.8091062E-3,-7.982915E-3,-5.1619945E-4,-9.526901E-3,-1.4693134E-2,8.046484E-3,-1.9192696E-3,1.2713035E-2,5.5837E-3,-2.9634305E-3,-1.0346269E-2,1.9169455E-2,-1.2245339E-3],"split_indices":[0,1,1,19,1,0,33,7,1,0,6,1,1,7,22,0,0,0,0,0,0,0,0,0,0,0,0,0,0,0,0],"split_type":[0,0,0,0,0,0,0,0,0,0,0,0,0,0,0,0,0,0,0,0,0,0,0,0,0,0,0,0,0,0,0],"sum_hessian":[5.8568066E3,3.9898013E3,1.8670054E3,2.2207114E3,1.76909E3,1.6604021E3,2.0660329E2,1.9098762E3,3.108351E2,1.2730468E3,4.960432E2,4.5211334E2,1.2082888E3,1.8761942E2,1.8983866E1,1.1733108E3,7.365654E2,1.4906184E2,1.6177327E2,1.1582437E3,1.1480311E2,9.667186E1,3.9937134E2,3.1225513E2,1.398582E2,9.630207E2,2.4526808E2,7.446491E1,1.131545E2,6.8344235E0,1.2149443E1],"tree_param":{"num_deleted":"0","num_feature":"35","num_nodes":"31","size_leaf_vector":"1"}},{"base_weights":[2.4466917E-3,3.27275E-2,-7.834404E-2,4.422191E-2,-1.8139823E-1,3.8600355E-1,-9.23094E-2,5.0379235E-2,-1.9978493E-1,-2.240832E-1,3.1117442E-1,5.0923645E-1,1.651395E-4,1.5854369E-1,-1.106996E-1,7.846423E-3,1.3191717E-3,-1.9083784E-3,-9.252366E-3,6.802039E-3,-7.784694E-3,1.6979836E-2,-2.6118057E-3,8.381086E-3,3.1207694E-2,-1.719316E-2,6.6074613E-3,-3.4914974E-3,1.1571502E-2],"categories":[],"categories_nodes":[],"categories_segments":[],"categories_sizes":[],"default_left":[0,0,0,0,0,0,0,0,0,0,0,0,0,0,1,0,0,0,0,0,0,0,0,0,0,0,0,0,0],"id":40,"left_children":[1,3,5,7,9,11,13,15,17,19,21,23,-1,25,27,-1,-1,-1,-1,-1,-1,-1,-1,-1,-1,-1,-1,-1,-1],"loss_changes":[1.1161087E1,8.175434E0,8.101309E0,4.742938E0,3.6283875E0,1.7090535E0,5.5916204E0,4.146582E0,1.1302598E0,2.5543022E0,1.4614607E0,3.0741644E0,0E0,3.8706896E0,3.2227993E0,0E0,0E0,0E0,0E0,0E0,0E0,0E0,0E0,0E0,0E0,0E0,0E0,0E0,0E0],"parents":[2147483647,0,0,1,1,2,2,3,3,4,4,5,5,6,6,7,7,8,8,9,9,10,10,11,11,13,13,14,14],"right_children":[2,4,6,8,10,12,14,16,18,20,22,24,-1,26,28,-1,-1,-1,-1,-1,-1,-1,-1,-1,-1,-1,-1,-1,-1],"split_conditions":[1.8E0,1.8E0,3.726E2,2.667E0,1E0,4.844E2,0E0,4.6666665E0,1.5E0,4.6666665E0,8E0,5.2E0,1.651395E-4,4.1266666E2,1.6333334E1,7.846423E-3,1.3191717E-3,-1.9083784E-3,-9.252366E-3,6.802039E-3,-7.784694E-3,1.6979836E-2,-2.6118057E-3,8.381086E-3,3.1207694E-2,-1.719316E-2,6.6074613E-3,-3.4914974E-3,1.1571502E-2],"split_indices":[5,14,25,8,15,26,13,21,7,30,10,18,0,25,31,0,0,0,0,0,0,0,0,0,0,0,0,0,0],"split_type":[0,0,0,0,0,0,0,0,0,0,0,0,0,0,0,0,0,0,0,0,0,0,0,0,0,0,0,0,0],"sum_hessian":[4.560186E3,3.317401E3,1.2427852E3,3.1491462E3,1.6825479E2,3.550794E1,1.2072771E3,3.0724097E3,7.6736374E1,1.5533865E2,1.2916141E1,2.6565712E1,8.942226E0,8.1940445E1,1.1253367E3,8.9299355E1,2.9831104E3,3.4754562E1,4.198181E1,1.0918184E1,1.4442047E2,7.6194134E0,5.296727E0,1.9605167E1,6.960545E0,5.7285094E0,7.621193E1,1.1133551E3,1.1981644E1],"tree_param":{"num_deleted":"0","num_feature":"35","num_nodes":"29","size_leaf_vector":"1"}},{"base_weights":[-2.3772866E-3,3.241281E-1,-1.766315E-1,4.3342614E-1,1.8074307E-1,-8.83812E-2,-3.9629832E-1,4.0892872E-1,6.08077E-1,8.410928E-2,2.6981252E-1,-8.757243E-3,-1.533291E-1,-3.1771678E-1,-4.5923075E-1,1.3551934E-2,8.628439E-3,2.077558E-2,7.0506725E-3,6.5150065E-3,-1.1697586E-3,1.757499E-2,7.0270766E-3,5.6057394E-4,-5.2139256E-3,-1.050738E-2,-3.5844864E-3,-1.2842573E-2,-7.7165426E-3,-1.3992618E-2,6.1755306E-3],"categories":[],"categories_nodes":[],"categories_segments":[],"categories_sizes":[],"default_left":[0,0,0,1,0,0,0,0,0,0,0,1,0,0,1,0,0,0,0,0,0,0,0,0,0,0,0,0,0,0,0],"id":41,"left_children":[1,3,5,7,9,11,13,15,17,19,21,23,25,27,29,-1,-1,-1,-1,-1,-1,-1,-1,-1,-1,-1,-1,-1,-1,-1,-1],"loss_changes":[2.9498935E2,2.8196716E1,6.549998E1,4.128601E0,6.7091637E0,1.2477201E1,4.644165E0,4.5448456E0,3.737053E0,6.176794E0,4.433483E0,4.917791E0,8.81518E0,2.7877235E0,2.6572113E0,0E0,0E0,0E0,0E0,0E0,0E0,0E0,0E0,0E0,0E0,0E0,0E0,0E0,0E0,0E0,0E0],"parents":[2147483647,0,0,1,1,2,2,3,3,4,4,5,5,6,6,7,7,8,8,9,9,10,10,11,11,12,12,13,13,14,14],"right_children":[2,4,6,8,10,12,14,16,18,20,22,24,26,28,30,-1,-1,-1,-1,-1,-1,-1,-1,-1,-1,-1,-1,-1,-1,-1,-1],"split_conditions":[-5.439219E1,-1.18150734E2,1.0315507E2,1.56E1,1.4714966E3,7.187512E0,1.5866493E2,-1.4785039E2,7.6666665E0,-8E-1,6.67E-1,4.4E0,7.68E1,1.2004782E2,5.84E1,1.3551934E-2,8.628439E-3,2.077558E-2,7.0506725E-3,6.5150065E-3,-1.1697586E-3,1.757499E-2,7.0270766E-3,5.6057394E-4,-5.2139256E-3,-1.050738E-2,-3.5844864E-3,-1.2842573E-2,-7.7165426E-3,-1.3992618E-2,6.1755306E-3],"split_indices":[2,2,2,20,0,2,2,2,18,13,5,17,28,2,24,0,0,0,0,0,0,0,0,0,0,0,0,0,0,0,0],"split_type":[0,0,0,0,0,0,0,0,0,0,0,0,0,0,0,0,0,0,0,0,0,0,0,0,0,0,0,0,0,0,0],"sum_hessian":[5.1828022E3,1.803211E3,3.379591E3,1.0220842E3,7.8112683E2,2.411987E3,9.6760406E2,8.9928705E2,1.22797226E2,3.7558694E2,4.0553986E2,1.0840781E3,1.3279088E3,4.329915E2,5.346126E2,6.62735E2,2.3655202E2,9.943367E1,2.3363558E1,1.801271E2,1.9545984E2,3.946986E1,3.6607E2,9.302775E2,1.5380058E2,1.9339438E2,1.1345145E3,1.5115689E2,2.818346E2,5.2919055E2,5.4220877E0],"tree_param":{"num_deleted":"0","num_feature":"35","num_nodes":"31","size_leaf_vector":"1"}},{"base_weights":[5.4648938E-3,-1.5676427E-1,3.0047572E-1,-3.3312818E-1,-4.17655E-2,1.4484063E-1,4.0936393E-1,-4.3071926E-1,-2.7210552E-1,-1.10275276E-1,2.1767272E-2,1.00066796E-1,3.769739E-1,3.0578038E-1,4.6187863E-1,-1.35331955E-2,-6.6839405E-3,-8.823003E-3,-6.018334E-4,-2.8866283E-3,-1.2493726E-2,-2.399567E-3,1.8279795E-3,-3.1937205E-3,3.9223637E-3,1.7394591E-2,7.266057E-3,7.919697E-3,1.9764923E-2,1.2396067E-2,1.6446644E-2],"categories":[],"categories_nodes":[],"categories_segments":[],"categories_sizes":[],"default_left":[0,0,0,0,0,1,0,0,1,1,0,0,0,1,0,0,0,0,0,0,0,0,0,0,0,0,0,0,0,0,0],"id":42,"left_children":[1,3,5,7,9,11,13,15,17,19,21,23,25,27,29,-1,-1,-1,-1,-1,-1,-1,-1,-1,-1,-1,-1,-1,-1,-1,-1],"loss_changes":[2.8225403E2,7.716035E1,3.54012E1,8.825912E0,1.0032639E1,8.930677E0,6.5526733E0,2.3412628E0,5.131279E0,4.7319193E0,4.773043E0,4.605693E0,3.6639385E0,5.977806E0,3.1971893E0,0E0,0E0,0E0,0E0,0E0,0E0,0E0,0E0,0E0,0E0,0E0,0E0,0E0,0E0,0E0,0E0],"parents":[2147483647,0,0,1,1,2,2,3,3,4,4,5,5,6,6,7,7,8,8,9,9,10,10,11,11,12,12,13,13,14,14],"right_children":[2,4,6,8,10,12,14,16,18,20,22,24,26,28,30,-1,-1,-1,-1,-1,-1,-1,-1,-1,-1,-1,-1,-1,-1,-1,-1],"split_conditions":[4.829229E1,-7.7667755E1,1.0666596E2,-1.7046303E2,-1.43924885E1,4.8E0,1.4807257E2,1.5333232E3,4.6E0,1.06E1,4.578E2,4.75E0,8.666667E0,5.446E2,1.7142869E3,-1.35331955E-2,-6.6839405E-3,-8.823003E-3,-6.018334E-4,-2.8866283E-3,-1.2493726E-2,-2.399567E-3,1.8279795E-3,-3.1937205E-3,3.9223637E-3,1.7394591E-2,7.266057E-3,7.919697E-3,1.9764923E-2,1.2396067E-2,1.6446644E-2],"split_indices":[2,2,2,2,2,17,2,0,17,22,25,29,21,25,0,0,0,0,0,0,0,0,0,0,0,0,0,0,0,0,0],"split_type":[0,0,0,0,0,0,0,0,0,0,0,0,0,0,0,0,0,0,0,0,0,0,0,0,0,0,0,0,0,0,0],"sum_hessian":[5.8955884E3,3.8041306E3,2.0914578E3,1.5007145E3,2.3034163E3,8.6188574E2,1.2295721E3,5.750316E2,9.2568286E2,1.1079435E3,1.1954728E3,7.2372485E2,1.3816089E2,4.15949E2,8.136231E2,5.2261786E2,5.2413765E1,8.512333E2,7.444958E1,1.0605753E3,4.7368107E1,3.319679E2,8.635048E2,9.328361E1,6.304412E2,5.3833557E1,8.432733E1,3.7348715E2,4.2461838E1,5.240001E2,2.8962302E2],"tree_param":{"num_deleted":"0","num_feature":"35","num_nodes":"31","size_leaf_vector":"1"}},{"base_weights":[4.1173315E-3,3.916964E-2,-1.4500828E-1,-5.222525E-2,7.677874E-2,-1.2166262E-1,-4.321168E-1,4.365812E-1,-6.0755026E-2,1.5205993E-1,5.249897E-2,-4.7290947E-2,-1.8184014E-1,-4.855569E-1,-2.987467E-3,-7.448304E-3,2.1869773E-2,-1.4981001E-3,-9.944849E-3,4.244274E-3,2.026504E-2,1.7095989E-3,-1.0796801E-2,8.410393E-3,-2.749366E-3,6.8789483E-3,-5.887997E-3,-1.7316332E-2,-5.9803557E-3],"categories":[],"categories_nodes":[],"categories_segments":[],"categories_sizes":[],"default_left":[0,0,1,0,0,0,0,0,0,1,1,0,0,0,0,0,0,0,0,0,0,0,0,0,0,0,0,0,0],"id":43,"left_children":[1,3,5,7,9,11,13,15,17,19,21,23,25,27,-1,-1,-1,-1,-1,-1,-1,-1,-1,-1,-1,-1,-1,-1,-1],"loss_changes":[2.3856535E1,1.270557E1,5.769436E0,4.520664E0,4.777869E0,3.5927286E0,1.1054173E0,3.907606E0,3.0889494E0,3.4390974E0,3.6873465E0,5.2753863E0,2.681035E0,1.3455172E0,0E0,0E0,0E0,0E0,0E0,0E0,0E0,0E0,0E0,0E0,0E0,0E0,0E0,0E0,0E0],"parents":[2147483647,0,0,1,1,2,2,3,3,4,4,5,5,6,6,7,7,8,8,9,9,10,10,11,11,12,12,13,13],"right_children":[2,4,6,8,10,12,14,16,18,20,22,24,26,28,-1,-1,-1,-1,-1,-1,-1,-1,-1,-1,-1,-1,-1,-1,-1],"split_conditions":[1.0666596E2,-8.743324E1,1.075E1,3.12E2,2E-1,1.667E0,1.5E0,6.78E1,2.2E0,8.6E1,5.972E2,1E0,3E0,8E0,-2.987467E-3,-7.448304E-3,2.1869773E-2,-1.4981001E-3,-9.944849E-3,4.244274E-3,2.026504E-2,1.7095989E-3,-1.0796801E-2,8.410393E-3,-2.749366E-3,6.8789483E-3,-5.887997E-3,-1.7316332E-2,-5.9803557E-3],"split_indices":[2,2,21,25,11,5,7,27,8,27,26,8,10,9,0,0,0,0,0,0,0,0,0,0,0,0,0,0,0],"split_type":[0,0,0,0,0,0,0,0,0,0,0,0,0,0,0,0,0,0,0,0,0,0,0,0,0,0,0,0,0],"sum_hessian":[4.5618384E3,3.694237E3,8.6760126E2,1.0768839E3,2.6173533E3,8.036757E2,6.392557E1,1.7608864E1,1.059275E3,6.370062E2,1.980347E3,3.602451E2,4.4343063E2,5.4678307E1,9.247266E0,5.3139544E0,1.22949095E1,1.01971326E3,3.956174E1,6.2562616E2,1.1380047E1,1.9598813E3,2.0465668E1,4.231955E1,3.1792554E2,1.4527155E1,4.2890347E2,4.0645565E1,1.4032742E1],"tree_param":{"num_deleted":"0","num_feature":"35","num_nodes":"29","size_leaf_vector":"1"}},{"base_weights":[-1.0445968E-3,-1.4217389E-1,2.5962758E-1,-3.939408E-2,-3.276178E-1,4.0131617E-1,-1.3362747E-2,1.580003E-1,-7.295222E-2,-2.329923E-1,-3.9930394E-1,3.2010695E-1,5.2991307E-1,-1.381494E-1,2.2451812E-1,-5.4384964E-3,6.3172295E-3,-4.0875166E-3,1.238006E-3,-9.897175E-3,-4.3200976E-3,-1.3176932E-2,-8.409632E-3,1.0278752E-2,-2.387248E-3,9.664136E-3,1.7373286E-2,1.4313857E-2,-4.7869612E-3,-4.780365E-3,8.781443E-3],"categories":[],"categories_nodes":[],"categories_segments":[],"categories_sizes":[],"default_left":[0,0,0,0,0,0,0,0,0,0,0,1,0,0,0,0,0,0,0,0,0,0,0,0,0,0,0,0,0,0,0],"id":44,"left_children":[1,3,5,7,9,11,13,15,17,19,21,23,25,27,29,-1,-1,-1,-1,-1,-1,-1,-1,-1,-1,-1,-1,-1,-1,-1,-1],"loss_changes":[1.9064476E2,6.4066124E1,7.040999E1,1.43478985E1,8.038406E0,1.2344528E1,1.8521357E1,5.653199E0,1.3384212E1,4.429327E0,3.1103516E0,6.6603622E0,4.538971E0,5.467947E0,5.6673107E0,0E0,0E0,0E0,0E0,0E0,0E0,0E0,0E0,0E0,0E0,0E0,0E0,0E0,0E0,0E0,0E0],"parents":[2147483647,0,0,1,1,2,2,3,3,4,4,5,5,6,6,7,7,8,8,9,9,10,10,11,11,12,12,13,13,14,14],"right_children":[2,4,6,8,10,12,14,16,18,20,22,24,26,28,30,-1,-1,-1,-1,-1,-1,-1,-1,-1,-1,-1,-1,-1,-1,-1,-1],"split_conditions":[1.5592166E3,1.544452E3,1.5499082E3,1.432775E3,1.6051102E3,1.6531187E3,1.668462E3,-1.2E0,1.4987396E3,1.4793207E3,1.5116365E3,1.078E0,5E-1,1.2575E0,2.422E0,-5.4384964E-3,6.3172295E-3,-4.0875166E-3,1.238006E-3,-9.897175E-3,-4.3200976E-3,-1.3176932E-2,-8.409632E-3,1.0278752E-2,-2.387248E-3,9.664136E-3,1.7373286E-2,1.4313857E-2,-4.7869612E-3,-4.780365E-3,8.781443E-3],"split_indices":[1,0,0,0,0,1,1,14,1,1,1,33,14,33,34,0,0,0,0,0,0,0,0,0,0,0,0,0,0,0,0],"split_type":[0,0,0,0,0,0,0,0,0,0,0,0,0,0,0,0,0,0,0,0,0,0,0,0,0,0,0,0,0,0,0],"sum_hessian":[5.1801836E3,3.360984E3,1.8191997E3,2.163246E3,1.1977378E3,1.1973013E3,6.218985E2,3.1378772E2,1.8494584E3,5.1809894E2,6.796388E2,7.360031E2,4.612982E2,4.081906E2,2.1370784E2,4.1771236E1,2.7201648E2,1.1898629E3,6.595954E2,2.4671101E2,2.7138797E2,5.0685995E2,1.7277881E2,6.9688336E2,3.9119717E1,8.9759224E1,3.7153897E2,1.301424E1,3.951764E2,3.2037785E1,1.8167006E2],"tree_param":{"num_deleted":"0","num_feature":"35","num_nodes":"31","size_leaf_vector":"1"}},{"base_weights":[-4.013013E-3,-1.4417486E-1,3.0138996E-1,-3.2693553E-1,-3.722531E-2,2.0016438E-1,4.2071402E-1,-4.172248E-1,-2.4806005E-1,-1.1258363E-1,2.1435225E-2,1.6677395E-1,4.7281486E-1,3.3544403E-1,5.1146483E-1,7.1287146E-3,-1.2687008E-2,2.0427653E-3,-8.087611E-3,1.3626245E-2,-3.6639376E-3,2.8330996E-4,1.0385079E-2,2.3299064E-3,6.0610683E-3,6.9616293E-3,1.7296402E-2,8.862556E-3,1.7606732E-2,1.7781343E-2,1.2022155E-2],"categories":[],"categories_nodes":[],"categories_segments":[],"categories_sizes":[],"default_left":[0,0,0,0,0,1,0,0,0,0,1,0,0,1,0,0,0,0,0,0,0,0,0,0,0,0,0,0,0,0,0],"id":45,"left_children":[1,3,5,7,9,11,13,15,17,19,21,23,25,27,29,-1,-1,-1,-1,-1,-1,-1,-1,-1,-1,-1,-1,-1,-1,-1,-1],"loss_changes":[2.5167123E2,7.875631E1,2.225505E1,